solver_type L2R_L2LOSS_SVC_DUAL
nr_class 12
label 10 6 7 0 5 9 4 1 2 11 8 3
nr_feature 15113
bias -1
w
-0.8029084760830404 -0.1118943041854767 0.2279315962213803 -0.3669654083188804 0.1837997225995917 -0.3302881807279659 -0.1025267707894737 -0.2157666734682878 -0.3530217652293859 0.8286462735141367 0.1181059277400883 -0.1692557205108916 
-0.2179291010945933 -0.2430161409949609 -0.08327682533077255 0.02162774372529763 -0.04217192757288372 -0.1063718373581585 0.01091518153398159 -0.02073419874701367 -0.1333165368539111 -0.1962150844813267 -0.09319014293464535 0.7036261255894632 
-0.1073323835915643 0.8390443311985087 0.1674298060770978 -0.3375700127271224 0.002968681185683897 -0.3216656097204389 -0.05782381871948712 -0.230571658541759 -0.236047827178901 -0.1701941405797454 0.005258027621089911 0.1695520026764366 
-0.4859961554631204 -0.2788170983899949 0.001277714904964095 -0.9226990252026427 -0.6350788815236987 -0.9104246165396492 -0.1491932046510555 -0.608225354482656 0.3418168744535326 0.2578711674629554 -0.04852640551260073 -0.03015342064574637 
-0.1687553911997585 -0.03846545388146801 -0.1453694270943455 0.07890793945309973 -0.04058125936651977 -0.1438561248923418 -0.1127249576188379 0.2407667521953427 -0.3569040679307824 -0.2669668564967776 0.06840263826883097 -0.1782440087866147 
-0.1080904151183282 -0.2098293838647787 -0.07408152925821936 -0.1135286069043045 -0.05964761261744165 -0.07047592115224027 -0.1544698456597066 0.3440821893069418 -0.08573720898105458 -0.202811165523364 -0.1119563497443901 -0.1362248121622935 
-0.1010526427212769 0.1052667773216149 -0.4200382217439897 -0.0217142780931456 -0.01556651373958926 0.07033976901204612 -0.09360539977866497 -0.03771044516163075 -0.2118410231913471 0.2575459658478702 -0.1755119445489084 0.05242238752439558 
-0.3215870321549038 -0.5036429405990445 0.7096978798967937 -0.6873884992779803 -0.6119552657170485 -0.5548381111926141 -0.4193202775701133 0.4124146541421477 -0.7354053667359008 -0.2748407212884565 0.01224359801002577 -0.5419290635723775 
0.01056697484523444 -0.09077498146486962 0.236243471120151 -0.1458947852423567 -0.1348310395801108 -0.2909542696286459 -0.1338117076571465 0.226867250199717 -0.100573949119869 -0.01428968956115909 0.04748885224283628 0.1063031950243487 
2.802058914552447 -1.285308443120208 -1.070374552830258 -0.03213042958838163 -0.7731188793022756 -0.7529277038781784 -0.7579322199221911 -0.7563634551661456 -0.2487731983669796 -1.544971082256343 -1.057679165541961 -0.9456479728829054 
0.09902182209977187 -0.3232592685734586 -0.1424447972610864 -0.2732207581227632 -0.1874145629271519 -0.2269539403699031 -0.1441953092348087 0.05629101464047951 -0.3355363342710208 0.2843832686495306 -0.1355621453084373 -0.1264411932161105 
-0.4400514259713235 -0.2056573679694566 -0.8060160411578181 0.0957418029589793 0.2073261702847353 -0.993181662776046 -0.663178608397482 -0.4585808906193845 -1.305246074390667 0.224861578981088 -0.9140803203207425 0.8393606372100763 
-0.204763868050472 -0.01129473849289565 -0.06448584534342748 0.005103676160795296 -0.09275658161142072 0.1341244103360172 -0.06208017216580397 -0.03492472729023097 -0.05020112136153538 -0.1441680971487789 -0.04607421439627946 -0.09550252038667616 
-0.05108549641640394 -0.002936243830296303 -0.0757432151210601 0.05693346852347171 0.004508540255544633 -0.03786434203506783 0.03565869453686447 -0.08972609785150733 -0.01135210769081022 0.2430873197924268 -0.02243247336524203 -0.01864060867652254 
-0.03786472510282075 -0.01604903164786959 0.1245875671691219 0.01133562346120058 -0.05001976958837664 0.001322923965688934 0.1478332876647361 0.009392020109512032 -0.1692101349824495 0.05113322285910676 -0.1423105612529011 -0.04301572282451008 
0.02324952435803614 0.008097029337526216 -0.01194977851535769 0.2022089190502325 -0.001818670071125236 -0.06503204648348015 -0.0789373126818525 -0.03261354006307794 -0.01668259500897696 -0.06687810827875311 -0.01660241672463671 -0.01354029383720205 
0.143292814044504 -0.4731858287420163 -0.3492881577654373 -0.2539561725951872 -0.200854272581897 -0.1798487019914799 0.3180345366916577 -0.5051334911961418 -0.3159713846371603 -0.1528772593242721 -0.07249770203544174 -0.5896244363572247 
-0.6521003918367458 -0.06556642153116166 -0.4233880172183459 1.345964576863912 -0.7548594471223745 -1.124450661964778 -0.2946327288823448 -0.5222012538174379 -0.2911897119615121 -1.274806104020564 -0.5240816422363677 -0.4675650477964376 
-0.6023316185191661 -0.2170165275141581 0.3662061727273733 -0.1017079137525733 -0.5871134525849759 0.2138822792650132 -0.3115668946469971 -0.5005582594640078 -0.0721102197132349 -0.1503731630862624 -1.116718842017657 1.141643631529483 
-0.2845181648361035 -0.144064973900453 -0.1805522411959591 -0.4667159473773539 0.03977811916672288 -0.03698119370234194 -0.1879508259086348 0.09203761933868702 -0.3402610859946492 0.01192195608729958 0.2266141021255187 -0.07498504118892192 
-0.2038850220029395 -0.2186874636948126 -0.3412170922520313 -0.1559730089086258 -0.1668985580805096 -0.2172901079331383 -0.2644602451066893 -0.3160966488853684 0.2623887010965325 -0.2621439462487329 -0.09994138606685782 1.203752369714251 
-0.2412569786818083 0.08603030911809359 -0.08264644366669455 -0.1124921577817221 -0.2426909375083207 -0.4655211187952511 -0.06580842675691494 -0.06857538852454441 -0.3379546961966957 0.4868402032484792 -0.3324346556640085 0.1549032129618194 
-0.1888078340472655 -0.1730241153785132 0.6339265503536627 0.3150627870412921 -0.1308437382661553 0.06676553891809697 -0.2424597688068142 -0.4327864193617195 -0.370238738556553 -0.05126231673884725 -0.1937537990450723 -0.5358067047803748 
-0.1861733373332678 -0.1044784615734613 -0.2697781981623433 -0.3748807667594089 -0.1548363783275175 -0.205787880777311 0.2685791326656593 -0.1834735729642188 -0.3232003982881067 0.6582486874406158 -0.1056417768578578 -0.06545378511398119 
0.005311254234507953 -0.03363230478003313 -0.04589892905944187 0.01085876643391247 -0.07807668215181718 0.08345895499453714 0.007312487354291459 0.2425005580297205 -0.2256872625451326 -0.1988640111612835 -0.01460271740993157 -0.1149220026197727 
0.001365986386415586 -0.01673788834643039 0.05882234708569496 -0.1639270082885988 -0.02930120795609893 -0.03991165048252659 -0.1017097948623844 0.02040617320540672 -0.06079953161398438 0.2009922101791291 -0.05549592552506149 -0.1106296618513487 
-0.2336490352392666 -0.9952406398228671 -1.091721038001337 -0.8596179726765433 -0.9625627221040739 -0.6008061809883312 -1.816986213814964 -1.097061323086855 6.944159936735649 -1.795750806820423 -0.4832092946945419 -2.501530084573555 
-0.174972881167556 -0.2169952707422701 -0.1429971000220202 0.269882210853453 -0.673311165793711 -0.5025303161410279 -0.1901920509673967 -0.07972991864028244 -0.2955038914250129 -0.2764373952700558 -0.6358981610429093 -0.1140803173230779 
-0.01152441342208491 0.08147673152864765 0.02111266743402737 -0.02548380301391573 -0.006053259957978053 0.01829723959228977 -0.04138838943777088 -0.08074194163497675 0.06522855724158187 0.08033946129053221 -0.02795275907991042 0.01157690220282893 
-0.1121424773560594 -0.1189989914629648 0.002639214619341859 -0.1011150556831952 -0.2048886298732898 0.06849917348200249 -0.09759605452429812 -0.09454118875914078 -0.1686250020966954 -0.4535807659951348 0.08790872057577241 -0.1493234527787159 
-0.1593323841880546 -0.108163501709188 -0.1383755343235516 -0.1109692644780667 -0.1844677233508885 -0.1301547571140458 -0.08363637747204533 -0.1529970857805564 0.2681297198628479 -0.08610670127844075 -0.14033527726879 -0.1720155696462624 
-0.05056415713985897 -0.1232484923077202 -0.02622259721350284 -0.1877698397336687 0.02170013825391478 -0.06135661380916652 0.1341150066116249 -0.2558138499662522 0.08855291712068757 0.0904405237788871 -0.06075941213386041 -0.1713236102580251 
-0.09618646231139186 0.1202762368482585 -0.1025089500555922 0.1400784573479342 -0.05586736901585908 -0.3993092865936934 -0.2148914403969293 0.04237696592232228 -0.2862645551525739 -0.1108936624889738 -0.1138485467984172 0.02616327042902095 
-0.07682315849354503 -0.2025992864924403 0.7053623424314294 -0.08225162935335324 -0.05613195535792242 -0.09173603173295732 -0.08646768653209969 -0.1652478589529135 -0.1435334510401856 0.2037836940361395 -0.1770960868470959 -0.03848047803935875 
-0.006888311209253876 -0.1388059034804834 -0.1143473405436202 0.009862429083590295 -0.07125508229588043 -0.03971528337564919 -0.1532553725672021 0.3333430252153126 0.05002372295367793 -0.1222637903129398 -0.01967907126233899 -0.06097296089817172 
-0.1744318964472313 -0.2233939512294474 -0.1546048176247909 0.07692675272575449 -0.1863597901173656 -0.009991993203243222 -0.09478584982688938 0.02443433666028676 0.2781305246831991 -0.196732206685168 -0.2486812550830901 -0.2134832659449189 
-0.04855146284454257 -0.052430317968103 -0.06194794096610675 -0.08292906071915557 -0.1275903290818113 0.1835005387213197 -0.03470042967213567 -0.1422644671156934 0.1158485542884358 -0.08101440883887225 -0.1475656326953062 -0.1767979473479374 
-0.03223142016240967 0.02938652068651017 -0.3057647046195403 0.2383887472612049 -0.05810472255926692 -0.07581818686278184 -0.08407919956719921 0.01557707259390536 -0.1183202184392734 -0.1655273877720249 0.01457089502668056 -0.02580913475267899 
-0.4646409809554868 -0.213999821447194 -0.2254211428321589 -0.3702177884630078 -0.2746004185477953 -0.4850073876361297 0.157524503294542 0.05214056906240897 -0.0766140447902654 -0.087979587838666 0.01293970211022398 -0.1655500477514623 
-0.3419084888664861 -0.2012656803584821 -0.2453560798507888 0.04803612307280136 -0.2178561114602184 -0.4411175623594384 -0.007301275187982678 -0.1364775910299564 -0.4389663714846999 -0.4861520750939543 -0.325496638957772 0.2869204655971869 
-0.1239488811111513 -0.01158529906641513 0.1407021666024031 -0.1606759974834935 0.03608361848878528 -0.3130831804552899 -0.05717505489209334 0.4734935459074311 -0.2688872648192976 -0.04729130732067326 -0.09695050321561549 -0.2451593063067589 
0.01727690353343493 -0.0446382105329598 -0.04374995884145002 0.009678558878648416 -0.05079494479671944 -0.01067667550700519 -0.08429911476767768 -0.02464070493568014 0.02676173681871008 -0.07795739156440422 -0.006054729531342122 -0.01854638411428639 
-0.008767410016033648 0.1117483090650398 -0.01511328148256701 -0.06468275877944762 -0.02616958348433702 -0.02412486598199581 -0.05574727659262928 0.07376250096612559 0.2372704921522672 -0.3921986881878995 -0.1020427316391615 0.1599290033089073 
0.07595210065694512 -0.1098792533709051 -0.0675906897520311 0.03626826164607982 -0.09632312442801751 0.006304573386470105 -0.04643526980509004 0.01276634016176086 0.06971846002874867 -0.3878688747442155 -0.1922198396346711 -0.1110974742419217 
-0.02896975335013825 -0.2094362881404553 -0.2814358030335102 -0.285963427387197 -0.1366696231797085 -0.2625368081810225 0.3181053022283826 -0.1596885151812806 -0.143556521142184 0.0948516022978432 0.1399067591974007 0.01129321694392708 
-0.1008069014279185 -0.08248916900538815 -0.2522799450822066 0.1914388509082207 -0.2617259683172693 -0.0920216050481556 -0.319129777006555 -0.08593509670093773 -0.3153422558250256 0.04341915574626438 -0.2429923976655214 0.1435957426758077 
-0.02490382653752837 -0.02095813574900179 0.05407310838577559 -0.01837946371672615 -0.01026743792846507 -0.2679399289084372 -0.04911535313808996 0.473364962377307 -0.06720712125917208 -0.1198955337919349 -0.03607406319209266 -0.07546741966496638 
-0.1913682993304716 -0.2271308027207161 -0.3594165182533307 -0.5823319192923961 -0.0908508443256526 0.03904806968348551 -0.5273325446026342 0.9014271482096214 -0.09498706778379606 -0.9390535877963045 -0.4188466999003029 -0.3471019979680339 
-0.1141264770967041 -0.3299522578013231 -0.07161410316410755 -0.3907150869785018 -0.08412579360846924 0.158490650435029 -0.08301236313847295 -0.08790732935729283 -0.2912552277891847 0.1250106232049976 -0.6129137028767911 -0.465078055709795 
-0.04033463637929293 0.6481578390513604 -0.04012534059613058 -0.9300120870763833 -0.1627248748340142 0.0004261545592232998 -0.1782108152566257 -0.3282574489963603 -0.1150845109976786 -0.8288776448898518 -0.2043420545051776 0.3600434098763105 
-0.3352880493767385 0.05961224945524798 0.0552439819800444 0.208399244106849 -0.1354759773328012 -0.2080331914837402 -0.2557206043461666 -0.4834097768513128 -0.7339148861746331 -0.2752406249009747 -0.7504846834672586 0.1559374053757935 
-0.1734351258954852 0.1313223390716323 -0.04675461579714395 -0.01528779425912689 -0.1487344649239262 -0.1334628215908873 -0.7608966931833535 0.02960771172178028 -0.4058106188283997 0.06184659549090726 -0.1668905831687052 0.6670130827540899 
-0.1245660248745368 -0.1304317733751098 0.158541580444729 -0.06526529620706553 -0.2397856264583376 -0.07944209242961799 -0.07852288790524137 0.2875226997095517 -0.1235376088387741 -0.1855069175375556 -0.1359667320719415 -0.09778208449321937 
0.0790656855047614 -0.04149279314863651 0.5082836942519653 -0.02517923962298071 -0.144490078971445 0.09911772696190019 -0.2795419745608158 0.09089302041994958 -0.2690207123791028 -0.2728387329066511 -0.1934898577846651 -0.2367299426418681 
-0.01464291138895782 -0.03158368918583836 -0.1562048727656238 0.1923164323597986 0.06580053851212282 -0.01254964129025564 -0.01460159383272109 -0.04430408881842682 -0.003080934818737056 -0.04249148474828088 -0.006418084173071615 -0.009359700832618067 
-0.06484380034578388 -0.08296757326572285 0.01559285921550405 0.03439828429351858 -0.03442575588919811 0.005334114123509966 -0.0955137191235452 -0.0203822579363922 0.02279255471032764 -0.01666320619413424 -0.02636216378397707 0.02944823702385604 
-0.3064429020561681 -0.2375452706291852 0.2721488529839401 -0.4792077268559763 0.1372018156794213 -0.1172664851490299 -0.2798313588458025 -0.09410633615527307 -0.3024743115153872 0.1842979944337385 0.07504905696413736 0.2245942377630412 
-0.1820933794817752 0.09059088593697583 -0.2211584590697361 -0.1002661662782535 -0.3925395187298996 -0.07218425260385884 -0.243455377085811 -0.08408956524713883 -0.3771804799456993 -0.04274655662459736 0.1954304569413069 -0.06089162539978851 
-0.03632742496403603 -0.02750618083924765 -0.1422745937665595 -0.09267452288210086 -0.03168930131466057 -0.04420907911208096 -0.01824364878107709 -0.03512135480576015 0.06025125848352012 -0.02377768132454972 -0.04598078440590603 0.16352570006958 
0.4439316923517192 0.1143437796539348 -0.6202581849035662 0.2129621136532076 -0.1353417924809312 0.2709740434411761 0.1464293204611588 0.1224620760405272 -0.1952710881915273 -0.3740678949383959 -0.1922265304341368 0.119621358859426 
-0.2768525337160167 -0.3001698571534654 -0.5305283682946258 -0.4160406035607478 -0.2762981219310605 0.01062503227974195 -0.01031977003042091 -0.2345728936276486 -0.008987152867068049 -0.1429861481405458 -0.1905189515495097 -0.1337022600849618 
-0.1370392840473336 -0.241688943562299 -0.1502730184322858 -0.283594220835363 -0.1067240505688184 0.03990366171913326 -0.1733646937894386 -0.1250076923264459 -0.4671638278586858 -0.2200908143383939 -0.1096023359355623 -0.2939555438819395 
0.3009783006577914 -0.09732053288962139 -0.3648916529321692 -0.06109784162151254 -0.07172233530950785 0.147442047159444 -0.129781368404033 -0.660219146243978 -0.1880874457010909 0.2917096133181912 -0.44079538247088 -0.1257843132286336 
-0.03881862640236597 -0.0362064358898446 -0.1445467542169661 0.2041588740741092 0.117327341990487 -0.06559968412050653 -0.1463258136377867 -0.06481937181722365 -0.2428837098871117 -0.1046396250013106 -0.1922077515526976 0.1451961540957369 
-0.2085414703800319 0.07982913996464204 -0.2740829239589095 -0.181918144762027 0.01112081533402199 -0.5655298966049312 -0.1213726476085473 -0.3913749163895179 -0.1571708803573638 -0.6272868455845355 -0.5564269734034385 -0.7530187266296862 
0.01687662993679072 0.213291996347509 -0.7993217020860333 0.08933492991141477 -0.4231317948826938 0.4868083958375182 -0.006703197108400246 0.408540292759406 -0.3950136418627684 -0.6536287299803745 -0.09467832497389683 -0.2367127820570245 
0.06600613547195862 -0.0508896978697893 0.08246346739663449 -0.1437229420387632 -0.001493495213520326 -0.03940342901790182 -0.1685815430671883 0.1179000362383062 -0.1038935443195129 -0.08131752046685521 -0.1184372587952477 0.005187940575076134 
-0.05532210583829889 0.002414308872790084 -0.02627834052057208 -0.002329310691361732 -0.04411821808423017 -0.01628593137178891 -0.03193791648925015 0.08177275607144102 -0.03664703949828518 -0.02273410194994309 -0.02827989160741454 -0.1059714741854954 
0.3481390298433815 0.1571844161965749 -0.05549654614543262 -0.1665262298628302 0.3266694878479812 0.2119239464565882 0.3077253191562575 0.2999798542767527 -0.08464186435133968 0.1029072551754161 -0.07543331787001918 -0.3475041711434484 
-0.03418741931456378 -0.01964081246417706 -0.04938032681795271 -0.08214763266142662 0.002160048900339795 -0.06073944614707327 -0.08323388314545258 0.04913251831051199 0.02206644743603942 -0.1832343558074124 -0.002738692984254127 -0.008237313266194434 
-0.1256947446089156 0.08356312870706165 0.06150519377889163 -0.1446818285548459 -0.04211568607267129 0.03689576843453232 -0.08273491305741648 -0.1198109406938647 0.03425724465756099 0.09408026557138399 -0.06394570742573695 -0.04831827837303544 
-1.644495822812795 -1.451224039251174 -2.397592463920411 -1.18816741162642 -1.249842646920823 -1.473527404293794 -0.747269886614837 -1.416840007680405 -0.8676041194389267 -1.618189834604721 3.465524225258976 -0.6925455075921308 
-0.543362752215331 -0.04494265303478225 0.2752383871073621 0.1211036158750121 -0.3114067710854569 -0.1678232711481699 -0.1755222250310344 -0.08106701814053391 0.02936615957587825 0.01779697662151778 0.08243609718160529 -0.249878973404182 
-0.05526595168869923 0.0006337125953128326 -0.1437474134685771 0.09104354255235064 -0.1006334079970507 0.1955275192849951 0.1174652811467715 0.08657005422613322 -0.0198397810049725 -0.2443734053935887 -0.08874460132319167 -0.03788324708438817 
0.07593712346292539 -0.2852099898612083 0.2796389740976123 -1.019962273439415 -0.09349204839586193 -0.9096299811831827 -0.1874497165581309 -0.3001444863664373 -0.6223797298213409 0.9522909449630352 0.1103210610222929 -0.2675447932200791 
-0.03156812062450255 -0.2014500050265425 -0.3840370287434866 -0.1364873412302172 -0.06285504858275899 0.4164216331977156 -0.1772890715607972 -0.5940542427533422 -0.01329842997575238 -0.3651085779198318 -0.21807882520644 -0.4635498840262181 
-0.01961617545058385 -0.1260980912511684 -1.18233039422123 -0.02905809246000603 -0.5789201046141697 -0.1210977254435747 -0.2804522185761851 -0.05481400536373853 -0.6959847633711168 -0.5422804780931404 -0.07892725776209436 -0.2080025691565217 
-0.1491858734718119 -0.1579915415379964 0.0117038973267207 -0.038487374999102 -0.1308098808048122 -0.1867497115916525 -0.06058019624185942 0.02322920507828529 -0.1899034200024832 0.1163788541707653 -0.06721484392120759 0.1105743639361776 
-0.5954768845201062 -0.4036608336995149 -0.1869369865581736 0.06588298574842585 -0.6622977973857154 -0.700229343968452 -0.25606792070645 -0.06475455787185125 -0.6668925679517251 0.142270117004019 0.1145885663115185 -0.2412941405748038 
-0.1727200017904964 -0.1637114250401391 -0.1447566147220696 -0.09877147296635808 -0.1264456612728362 -0.2500137338106786 -0.004281153380069601 0.7482644664406407 -0.2845754875192982 -0.2127016174036181 -0.2631917230902095 -0.2374296669765498 
0.007488634565543103 -0.01428022480401222 0.01077248828056915 -0.1108057480596199 0.06468099927820732 0.03233714721810733 -0.02231109126310671 -0.001802623038185975 0.03392614738295174 -0.09107009542804062 -0.01066754983517533 -0.03432154834576574 
-0.596829826764573 -0.1419670127634264 -0.2707125202981389 -0.1861108833162608 -0.340800005526611 -0.2595404529171202 0.2285627174284542 -0.5944900313624609 -0.1640952171203791 0.2389227921832971 -0.05117543266577362 -0.5768080351533879 
-0.1334514414916388 -0.1950929623965339 -0.2460106587160261 -0.01487508558215835 -0.2575689894278609 -0.5115028204726328 -0.3176390381031679 0.2541384666427835 0.7265833816215912 -0.05540920997373961 -0.1277707266931669 -0.4469278707252599 
0.07095242552870835 0.02325019093918346 0.02853137797335279 -0.1390733630335742 -0.09748800307960333 0.108532778758504 -0.05448927605241741 0.006675505641979775 -0.03226344586960731 0.1504666219617086 -0.1998915287859233 0.9332840218011291 
-0.02215111707080549 -0.1698639582578345 -0.009274397097151109 0.747130442369165 0.03178537015529793 -0.07330216346053103 -0.1434356760093111 -0.06558809868673184 -0.05015093349971763 -0.06543283743640076 -0.07730834853202738 -0.04644970463899539 
-0.147764771354593 0.1715259504532617 -0.2530699049577166 -0.2670696577538639 -0.3083963136988326 -0.03177105108515368 -0.2407082333928053 1.068218626207555 -0.3346890778558902 -0.9143877149990134 -0.1718801440280369 -0.3322275896105621 
-0.009056967207622895 0.02847727779715693 0.004925961414741166 -0.0182654742423459 -0.01819480761466613 0.02687611951309025 0.05238563158127098 -0.02119366182451364 -0.0310296768216713 -0.02140745655609159 0.004390160281749633 -0.0267841591496242 
0.1416413389599428 -0.07130350125552261 -0.04903053078824978 0.06262863190102784 0.02305239996652404 0.09579825553277106 0.0007782537159603782 -0.1342512471719549 -0.01820925394691718 -0.3427465225308576 -0.1048666801341995 -0.07487831865103779 
0.1369368949097866 -0.2438170443825669 -0.5249516146572042 -0.6904340773017954 -0.2680286042115799 0.03081407986226293 -0.2866562503191764 0.05528142426637191 -0.5011002032852074 0.0759283233932616 0.26972255698032 -1.05591510251841 
-0.03868519096932423 -0.003788409710989872 0.02837272070900155 0.007810491113249753 -0.05486626648693113 -0.092547849914641 -0.02795003513379138 -0.03017030138046346 -0.04106583044732971 0.01292780288542901 0.006710219409288046 -0.01273713615779762 
-0.08259525883024781 -0.06270361157194279 -0.1223065714986723 -0.2237227453388978 -0.1797690243063704 -0.06317358917029373 0.04218692606891143 -0.1226255739465541 0.0487629514381429 -0.2270930591834309 -0.02266562484780605 0.03986937680484823 
0.1247060518897267 0.03149342431039812 -0.02068482059299137 -0.2270511971099755 0.3665764935425669 0.06602075663109869 0.1065671961979215 -0.06475633588215042 -0.2982075201842335 -0.228050206631356 -0.3024664194898231 0.5732084612637065 
-0.05712962770371146 0.02204390708682557 -0.06550355849185904 -0.05850896598363113 -0.009562363685083307 -0.05220840101002078 0.03007476748138422 0.03771254436528187 0.01336461639413606 0.001944994284196877 -0.002942007197525604 0.02365162560829898 
-0.1545506337629038 0.0564686114827968 -0.1246491029399073 0.05243630334294885 -0.4273364408671791 -0.2114812956985885 0.0355163452797761 -0.4008822944762643 0.1981599906207158 0.005831857572421676 -0.2252581264466339 -0.5647411905675596 
-0.05592632899301698 0.01830076902714296 -0.002172314565948941 0.0661701151100853 0.01953220316983659 -0.09259858468667059 -0.01701222089146324 0.03875802738508559 -0.02459104939642797 -0.05682552202076684 -0.0166947121094876 -0.03267502737716627 
-0.1594484044978454 -0.3050459812685906 -0.3518361244198797 -0.1340120904326774 -0.2115887748132508 -0.3182188548020489 -0.3613946837448762 1.375464567472773 -0.4047743563409077 -0.2496519470333162 -0.05338864155765545 -0.1567135216425925 
-0.1035060800640862 -0.193021386362138 0.0205900122785982 -0.3336254122752238 0.1427844008486523 -0.05562485477667573 -0.1685512643302335 0.05195079241116081 0.116765902157986 -0.01732715003739394 -0.1622532533061981 0.01234675222754702 
0.1290221739768099 -0.2308476508411927 0.02690992550238597 -0.2014888439144515 -0.2534877392223708 -0.5691379725313375 -0.6969337257566059 -0.1925984293578031 -0.08428058224683402 -0.3373261882491512 -0.05288010298034782 -0.5110971104720364 
-0.02363104784289137 -0.1109180968616371 -0.1456932136023284 0.3858346079410271 -0.06118106429330441 0.02336523111661473 0.0246788484591463 0.1170340088538331 -0.0282942582870972 -0.1541695149208381 -0.0842437260552958 0.01985498354133943 
0.01879148287411658 0.193520369832587 0.01492788118484464 0.1463180072532312 -0.2134601976659525 0.3929583819665095 -0.1646537110884077 -0.04192378808152887 -0.237933430340568 -0.3403073925712884 -0.2560621841177365 -0.2041583645337429 
-0.575531473701401 -0.3227508970316845 -0.9261434765213064 -0.6099949159919932 -0.2298210946017258 0.397999806062967 0.2797640709665463 -0.2324346043046947 -0.2468011099166562 0.06845494470164361 -0.4806641943004497 0.01979719417961831 
-0.1305522438336042 -0.1307186057286807 0.1192030823284355 0.1132067526971959 -0.1128465979938072 0.02919590117853363 -0.1083635655534092 -0.08651155055123351 0.02040014159947126 0.009109623551719383 -0.1326656166231714 -0.1599874149391448 
0.06851752760917684 0.3143577741353686 0.0910985098394152 -0.1354527749314286 -0.2817145785075353 -0.01858919419714195 -0.04261754022401602 -0.1937898916058815 -0.2667888439507141 0.003315322238744423 -0.04182469969061377 -0.1860947510706391 
0.006740106922604785 -0.130985295061611 0.32039449424083 0.01149150973206362 0.09020680768281183 -0.1365769188718357 0.1697967251673022 0.07423035729095824 -0.24680795552152 0.3505013442253047 0.02980324103234333 -0.07085319302697157 
0.1113524319403393 -0.2472442827006439 -0.3975338054508692 -0.3150393153347337 -0.1292015164779364 0.3029324719873945 -0.0272027020820108 -0.2624468597046554 0.2052996680365569 -0.5783411027009834 0.1062121549000194 -0.1400811899704839 
-0.05228231753559266 -0.1793306036216034 -0.02796742770931485 -0.05611808904305574 -0.1165859691165559 0.002914977959950087 0.0631882259938269 0.1983491181300876 -0.02292707511512622 -0.1552633528609511 0.1160567174394659 -0.0500656283230087 
0.1055523120234426 0.03480854628441733 -0.2847002119684435 -0.1959983477030121 -0.202137573527486 -0.2929113693438189 0.02136698979858201 -0.009533427898223187 -0.1571806599147663 -0.1707778712477379 -0.269527933740558 0.1338351757849352 
-0.3841343813416099 0.02673209845662493 -0.2788850368246046 0.7535379486076922 -0.3583029661024473 -0.3960589627570715 -0.1973879170049964 -0.6272616634761896 0.03958237741641078 -0.05096967094529518 -0.4133228461972402 -0.2389296949668587 
0.3729202144677013 0.02634040587870979 -0.0458922903994445 0.1111624564920868 -0.05228896030404767 -0.7604169181028406 -0.1582171773488765 -0.4957586623364283 -0.5325200737065908 -0.1063773751397835 0.01599472060066795 -0.02488426776125888 
-0.1711448994975962 -0.1958012543486831 -0.4071656700000343 -0.001311364728347622 -0.2679290072594671 -0.3089483030355983 -0.1444512855091383 0.4107051886618858 -0.4169533678871786 0.05770051793651015 0.1270418873213711 -0.3374946567532343 
0.1562788314691337 -0.458914950674728 -0.2071252032803018 -0.3996238529563097 -0.4761695182505162 0.01910088925972191 -0.2343576812190987 0.1574079693805702 -1.058386948054758 0.04060642920704895 -0.5470470172803757 -0.3331904412122167 
-0.165705286751301 -0.192129329808757 0.0269777754978321 -0.6105751868905905 -0.1954948337218025 -0.4154343707024731 -0.4868317371529445 0.30679319453523 -0.002835343056274421 0.2193470376703692 0.02428688482472501 0.2546198364862975 
-0.01054657274288306 -0.1414158438682922 0.1404821573884057 0.01221793600148664 0.1082227437082625 -0.2966861449275547 0.1354096573773584 0.01994044367311377 0.008076000674131098 -0.01253741209110859 -0.02694127049214379 0.0006148928591149759 
-0.02122432896887561 -0.006461637249679051 -0.02878582622669184 0.00772443469118621 -0.003990095811236669 -0.04085063566741581 -0.01227999300940038 0.03813915983145305 -0.04528443973021958 0.01258268371895528 -0.003982016844457756 0.03993903178906241 
-0.0172031644891183 -0.1764014819632854 0.01028592563328716 0.1689168989136763 -0.07660859546490613 -0.3034172886751751 0.04399685596653719 0.4140789057151866 -0.2054139213177929 0.2974449271727873 -0.2208476265245158 -0.08739191611069445 
-0.0669823476894794 -0.0300308686110609 0.0393587891654059 0.0446886113537681 -0.08104307366051153 -0.05216226763822022 0.0461091616280982 -0.05611091603434363 0.06954564162434843 0.0334223483163619 -0.06707850716516428 0.01970714072051654 
-0.04208938324318686 -0.1105581800188161 -0.01172464317395636 -0.2097894871884586 0.174604193020623 0.03552779996310961 -0.2898888425504746 0.3398520277226987 -0.004195090421088954 -0.2866006829876612 -0.1085615442153352 -0.11202388400603 
-0.1608778163440009 -0.3975895961458121 -0.2682564502002053 -0.4314849999648148 -0.2421673683656649 0.067870348174563 -0.3373627000727211 -0.08334932552414048 -0.04046866600168817 -0.4378656374188438 -0.1150257479472059 -0.3702464693472993 
-0.1265656906440589 -0.04710515662042363 -0.090118488601345 0.2760034587016016 -0.08629002681256766 -0.2897817934217479 -0.09981539032393325 0.3990679561675252 -0.1423965183862103 0.2105663237255763 -0.1303880837167667 0.1000534999925095 
-0.01469282048668606 -0.02083253295781433 0.004073597187317116 0.2229358843938502 -0.03431227037128998 -0.01679256570037974 -0.1230901157329559 -0.0178923237562218 -0.03089943055994448 -0.01343212973936449 -0.04880614340132764 -0.02915668765122188 
-0.3076790374552079 -0.1536224929922908 -0.09211319818114756 -0.2147460914106311 -0.03777512653240782 0.05371103014244825 -0.08094234444018894 -0.1390546993839409 -0.1817608713459029 0.0538962051038657 -0.2311562834019676 0.01755173531691361 
0.04503833951928565 -0.09102524214015111 -0.2353911981237091 0.2186568447608024 -0.1614705313318492 -0.02370438447838751 0.03059777819601159 0.1072292835108652 0.03805293584208601 -0.2647400539539688 -0.08155152239656061 -0.09467361503268268 
0.04538248161300852 -0.06443527271493578 -0.05007401272577022 -0.0274689301578102 -0.04160029101396391 -0.07142935638581259 -0.06163545110707905 -0.04171971837507718 -0.002162268046170057 -0.04151672782093796 -0.03186664611059604 -0.02798984620012691 
-0.4664473913992129 0.0361657634066101 -0.3807378198957534 -0.7747388416272627 0.2879941349814903 -0.8816338560713918 0.5475557406532052 -0.5579549758618316 0.03580597362753114 -0.6531524781154699 -0.2860062763969929 -0.298853917542739 
0.5965863066919846 -0.2134050920816917 -0.7492220749855991 -0.8805627244748597 0.8432354608198055 1.35638161807794 0.3523958167845664 0.2558646880417463 -0.7423499719520247 -0.09441214203099656 -0.5272850934946475 -0.5917957731842799 
0.09122611876815102 -0.3860417220894497 0.0318510091556616 -0.1879888663283477 -0.3566806893203645 0.9141191905183511 -0.450164429905152 -0.2671291816377197 -0.4129674251846287 -0.5868508559150001 -0.187184205533015 -0.1601681714142144 
-0.1550349435000674 -0.1250258811367828 -0.6365653308451943 0.3318683197090315 -0.3109857943739068 -0.5620553047055491 0.5661969896550988 -0.6626895252867629 0.2968995051895554 -0.3641134397006154 -0.4145255773304865 0.6812891469821424 
-0.695742256626753 -0.248757195597182 0.4792684831637098 0.3163352877213508 0.5060280853539633 -0.7308685425078653 -0.3511878661047381 -0.8452890692502045 -0.4481676828114905 0.006539987974931895 -0.5199029968276296 -0.1784369244137816 
-0.04047655959004684 -0.0305220576124506 0.007430588900465019 0.003569103496904961 -0.1029737853268533 -0.05656344264233092 -0.05843011960440324 -0.0716437273020438 0.3801693198751164 -0.193634784148173 -0.1216980708084532 -0.06395110110187834 
-0.460072969999028 -0.1139974952346969 -0.05180508407353487 -0.5648323381867228 -0.02272296941147615 -0.2880166378024934 -0.6335923359635773 -0.250912356366353 -0.3375046707861561 0.3776216870119262 -0.265489193179035 0.2427610408384062 
-0.2979638225416215 -0.03463970748076414 -0.6168407053420019 -0.04396391997136999 -0.2756626745804458 -0.3373548069014176 -0.4848561571816856 0.7700854802346516 -0.3387590253127659 -0.1455425773723629 -0.28690661906021 -0.3547947111134928 
-0.1096380965811209 0.05795759823005222 -0.1189116206610104 -0.1078751456357154 0.06817549660017407 -0.08818060173319675 -0.03433480746992385 0.06343023406121483 -0.0915712333407088 0.1426315281390299 -0.06340565083262976 -0.05138008902838825 
0.01702034444193935 -0.123913863080631 -0.04191266263193379 -0.08196268118535301 -0.03474931906177721 0.2777854808197489 -0.09385855730286863 0.01749100160489316 -0.158683232464772 -0.3000922774895794 -0.03362951295667227 0.1634013483231751 
-0.07689827071730139 0.0002942051051645125 0.2760479557702423 -0.1933561576880854 -0.02735187785211417 -0.01234692387643992 -0.06169156766542304 0.1604635358429059 -0.03568219130651646 -0.1528826767946063 1.151965309675053e-05 -0.109206170429123 
-0.01896916210934719 -0.2501523417703792 -0.1574268598229119 0.05225766140593809 0.08580721350757685 0.1704530554063778 0.08180713058014588 0.004543518367513608 -0.01764435755221049 0.172053630811739 0.008081764566379436 -0.06725296601665608 
0.001899196060869367 0.371743060752407 -0.1321103749340532 -0.2043213406289339 -0.02958642041896226 -0.1483117065176429 -0.05667780875874177 0.1443903809792916 0.1063636421355904 -0.2058415615340627 0.0787966466071493 -0.2001106346403106 
0.008369804361569168 -0.09272622913210597 -0.0800263647747981 0.3801448641194785 -0.05846482559302798 -0.03209692429267792 -0.1475907271522381 -0.06008014690264908 -0.06419280912793916 -0.1632077868811398 -0.5657204126432178 -0.0590781800629147 
-0.03322296523716204 -0.04263891140709478 -0.1578925348280883 0.07619905791212345 0.03481660706025158 -0.05006470510255096 0.02361193658922647 -0.08851189906908688 0.002774815100889411 -0.04653142361340731 -0.00439294327065611 0.01166577407209795 
-0.09016624917275101 -0.1338442756706998 0.1391198149690436 -0.5841433633369875 0.1290574786450805 -0.1243362709963953 -0.2679811901886811 0.4720914332412623 0.1790709227998428 0.06272923407363179 -0.01265350841907457 -0.0434494178161105 
-1.161398134130024 -0.8630677617482013 -1.175499547615619 -0.4500601793075777 4.446115395623039 -1.46545066871829 -0.5098802226642888 -0.5601648095437143 -0.8178159614163489 -0.7540094375328654 -0.4130929022802421 -0.6567607748914286 
-0.03885286008496106 0.05646051209377449 -0.1993924387542878 0.1495059226198625 -0.04670372425147198 -0.03597053001637129 -0.1579723770223069 0.02809007947443751 -0.3269476916165703 -0.08799359584155135 -0.1033038860569495 -0.292978375649468 
-0.7829057369125656 -0.068196564099962 -0.1506314178561058 -0.19186198295951 -0.5678598418993289 -0.4245454422525453 -0.6028845124308523 -0.189147901968198 -0.5581320943211475 0.08560037726434359 -0.2117210717830477 -0.3786816654536195 
-0.2914395993150897 -0.329327830656658 -0.6347954778299534 0.45720605325627 -0.270346865517208 -0.3194758714651101 -0.5105876843427205 -0.1006272818704154 -0.1082066474148677 -0.03208082773668913 -0.2024837258765878 -0.4699176561484437 
-0.16951880398428 -0.3964630521082453 0.1263885848215928 0.07079357830293138 -0.2268593820253716 -0.3320529676918914 -0.5316738049049031 0.007060471919202898 -0.8497092936368723 0.7900495247129596 -0.8942514587512018 0.03290994354312846 
-0.02373768603245534 -0.07052741138161638 -0.03300490673963014 0.03008279907559672 0.004877252410669291 -0.01675853617404747 -0.02849628800361597 0.116466045359055 -0.03835425586693863 -0.0281523249334071 -0.02419503196392196 -0.04230347829228614 
-0.1523987353755468 -0.2025251457997273 -0.1549941767086573 -0.4618881052991737 -0.2406973216467584 -0.2300033603852212 -0.2895840093045544 0.01294398546054137 -0.1839511338663396 0.8596826955380569 -0.2446387281440114 -0.1612054362845517 
0.1782215081228307 -0.09359025701257882 -0.3157647194969543 -0.9057921432792684 -0.2423624014351629 -0.3566929838472614 -0.0001942865679294667 0.05379096745923046 -0.6757900136982282 -0.4640300260638257 -0.6144685481659865 0.06771032532182227 
-0.03156283073035605 -0.05148128666872655 0.05444362678284842 -0.0242840309890246 0.02213894692201802 -0.107837553626038 0.01154384044267062 0.02342432530614657 -0.01542070893162185 -0.06515045694013716 -0.01956912293728856 0.06869727058234919 
-0.1381971208693175 0.004689228393294538 -0.03881370368165899 -0.02201943160875545 -0.01450522287745624 -0.08818842278278226 -0.01167558846081073 0.4883624224389079 0.1007292835242474 -0.2178459901702079 -0.01859226390517769 -0.02026559109869821 
0.05250041755602314 -0.002153750582625173 -0.07839744072823474 -0.08392191612643674 0.01808215186634719 -0.08989152795929072 0.008656508909476888 -0.02599775462036871 -0.1223242142305583 -0.08583121607404995 0.1334311326443723 -0.1370215128852781 
0.1509239711505253 0.02171463523554245 -0.1001269524044675 -0.04819860161634567 -0.08525662735123543 -0.0255916481337185 -0.01620600126756545 -0.1898759121468285 -0.06957903275541824 -0.2423854148155294 -0.09332829794150568 -0.0503841421745289 
-0.0464455424671316 -0.06003893014406269 -0.09367386057848126 -0.03713364188570763 -0.04406873686675535 0.04165969813395429 -0.05296850575825376 0.229496427081636 -0.08282790731007189 -0.2295853328747942 -0.05418410875940842 -0.03944117378217651 
-0.6958221687471693 0.5238749231006553 -0.7691362570195943 -0.3520883462152792 -0.8666465086057769 -0.6530335714544465 -0.9064946859536005 -0.7670669334392232 -0.008947665302175598 0.3683270252699007 -0.2456526636678305 0.4212771319747181 
-0.154166753035714 -0.06712537271604681 -0.02829982335246547 -0.1634598878942958 -0.06357499581129113 -0.09809846532730025 -0.03474070061103482 0.09835208772005129 -0.05637524134070766 -0.03575425531253637 -0.07214645030114127 -0.05235451418098377 
-0.01182342818905853 -0.006322264470387166 -0.001912560727066029 0.008578812200762405 -0.04107209295955414 -0.01532066342589024 -0.0542813599311543 -0.04665774617790591 -0.02998769101998661 -0.02205713097761277 -0.05524903932747514 -0.01109197513876787 
-0.1561077210462428 0.1528800543791401 -0.1818791723182753 -0.2565522786102718 -0.2880856680682988 -0.07845791084410512 -0.2459119590223792 -0.2100714740118179 -0.1598417656249695 0.02008239026483166 -0.05049480654547461 -0.2159593891888159 
0.1237804531994552 -0.3573291644447301 0.1585572722340101 0.02634190832212114 0.07196943069200941 0.1190289464857155 -0.3180898002474169 0.2345568349265709 -0.3945841963680714 0.2178495817218435 -0.6839678521625779 -0.3114861101608822 
-0.05690911958075359 -0.008134297828054908 0.1010289322650817 -0.02463665036031321 0.02212338104463267 -0.08699785185972203 -0.063677005663904 -0.03730631773457836 -0.03108116864873683 0.08222245478813428 -0.07546835667765077 -0.1188467034870732 
-0.1178069504097851 -0.1793434415937809 -0.02949437312541655 0.1976952863852174 -0.07756040832139172 -0.1466945541886521 -0.1184513896469095 -0.1994103005578952 0.09991615677731258 -0.2692216407000514 -0.1686832929967574 -0.01396962985084993 
-0.3927697638275759 -0.4103129801977712 -0.7503299399463556 -0.09529917206936402 -0.1862750403197272 -0.3705276722622263 -0.5335069421490265 0.8004688922016513 -0.03142526786465533 -0.3612066739453456 0.5435090600015661 -0.6701148333174014 
-0.1343210193592398 -0.3024662836725043 -0.1649956640272602 -0.3377275419180236 -0.1832090693792375 -0.2586908117033276 -0.3155342961372887 0.7859452711816147 -0.5079159134000188 -0.3733889603185358 -0.2192638705890067 -0.1613032505713478 
-0.3828872408652765 -0.09853650895631959 0.1631064340084878 0.003988374712696132 -0.3963163471016625 -0.3460189103254375 -0.156333905274779 -0.3741174484168458 -0.4737421628499977 -0.2560973399621795 0.2459319327825022 -0.07888593686487858 
-0.03518088063567344 -0.03265191927607283 -0.2520605994132974 0.07544764053946351 -0.08247251322982033 0.06105760827690271 -0.07366879379012414 0.007675167997881183 0.1856800529984172 -0.195799437519527 -0.03490904537656595 -0.07863928721659948 
-0.3919457629642302 -0.2994078687636658 -0.1685377413029556 -0.5033664990779777 -0.322617743478087 0.1719299693251247 -0.254655256414365 -0.07409962281202047 -1.435588142747721 -0.5795582942382156 0.5820333749545703 -0.9244574193062878 
-0.01007064440409718 -0.03464249835400646 -0.06252485032877378 -0.02766193334958531 0.0375772095734748 -0.0163293016893516 -0.007868556644030456 0.01129597151174784 0.002827929232541759 -0.0325479225360368 -0.01389211363113097 0.002955377635723383 
0.1090582269009938 -0.2775058334744192 -0.8412365802414057 0.2595591451317145 -0.774956689345681 0.1466065256617841 -0.6062398654632252 -0.4212028266932489 0.08987631882489414 -0.8527070021033949 -0.2519107270784603 -0.5766275913220199 
-0.2891587184820311 -0.1501658530792214 -0.1944311078592926 0.04681925211493446 0.01641970812172276 -0.2257179915823403 0.2876271709202609 0.2203042584859214 -0.4653590521306598 -0.2961256485656587 0.05271279856837172 -0.3810037257156171 
-0.06287213711750521 -0.1799705554297507 0.3012164623268448 0.1065889288925259 -0.1891796566707082 -0.2088199819117406 -0.006021577140043055 -0.07157122532209215 -0.1547391903010379 -0.1137057753571819 0.03087466450658285 -0.1567332280448998 
-0.03335230510107268 -0.1251588136812716 -0.1625742557653351 -0.2571890452355396 -0.08377436675758536 0.1112812821706331 -0.03315075788339406 0.01659004456322783 0.0279447679838867 -0.1222431622285185 -0.09742264073239505 -0.273573042224628 
-0.1040796239846288 -0.1884134470002085 -0.1443307594249197 -0.1014479935583375 0.2298892965769127 0.007040108199828788 -0.1357976268155354 -0.1197589819998605 0.3789157499917544 0.1279154779639641 -0.04167698246073449 -0.6520892479030086 
-0.001968825440915854 -0.2046814058118132 -0.1669421058928188 -0.5049362850671587 -0.1985542647192894 -0.3366304769844344 -0.2130711470837618 -0.2042024089214923 -0.172478097387381 -0.3173569851471427 1.078529510932545 -0.08249992688371995 
-0.1126080764043317 -0.1442747528996583 0.80513547721933 -0.3605499201588079 -0.1123151202657142 -0.3600301845941681 -0.2699242679210735 -0.2486778459169672 -0.4042105114871929 -0.1014182812536459 -0.1030988527890236 0.06837279679887555 
0.1906951534518422 -0.1239353181245195 -0.5505914406244882 -0.273394336241975 0.01418566172270043 0.2260979391568175 -0.1939910839097592 0.2288983250727483 0.05538108609406005 -0.2842014664255378 -0.02739945856350591 0.2269352984082151 
0.03334951025160515 0.05788635902952223 -0.04795913417229328 0.0479957833062538 -0.05580699358037927 -0.02201434199898262 -0.0381426828550067 -0.006769394962202939 -0.04248384760238032 -0.08326431586288047 -0.06415922127758768 0.1625335777204145 
-0.2501475836827152 -0.1727778651845913 0.05161527265372003 -0.5770605473501468 -0.002846225642399001 0.03907462779924914 0.1089278691797999 -0.1896357366540531 0.01663552944689888 -0.1872379004302911 -0.09405847038311174 0.06005194155458822 
-0.2301852460772509 -0.5541131640810231 0.5040945492595911 0.6318780958454118 0.1205249984491846 0.6248858182855797 0.1662708461407399 -0.5494915210431331 0.2728248281794453 0.2624811218176346 -1.807898548435038 0.05893473911049842 
-0.03239077111174758 -0.01940423758564495 -0.09356690191099899 0.007179440322849247 -0.02424544063438102 0.04307863834524869 0.03773866609712707 0.1372713595022558 -0.01825420803457078 -0.1051212508375219 -0.01382499262658655 -0.006070811726175233 
-0.6560611273390163 -0.05265354659380982 0.1258842677948539 -0.3930540588060026 -0.06766761052326774 0.183672561959705 -0.4180452800378292 -0.1095256676829946 -0.1828938564483393 -0.1215606480773886 -0.1400775602467118 -0.1989927361457543 
-0.1908557865059949 -0.1144879137006293 -0.1314741391119575 -0.937159003152089 -0.5034147228451458 -0.157283316481823 -0.04182110638489706 -0.4529241654071209 -0.2849782707271059 0.4445825431640524 -0.1007966289417214 0.7022384565564468 
-0.2521086912192442 -0.3770650916754114 0.5011598807866026 0.181335097337073 -0.1961387232730222 -0.1640903262379949 -0.3417829797455965 -0.08466564051627749 0.01023534391042729 -0.1312206577052705 0.03808475547678889 -0.3317839487340403 
-0.217444970206402 -0.1564817257512804 -0.03179561372661184 -0.09851990408039736 -0.1117892346317627 -0.1830101548736722 0.07725109564420415 -0.2379967937332603 -0.3187193693520128 -0.142557367225172 0.06544690236721401 -0.007121345084221847 
-0.08778447108764022 0.02196568550711044 0.07193677292611281 0.001601695481944438 -0.1285703169285381 1.053023405976441 -0.2097658467524584 -0.6476491024623723 -0.1678547793095228 -0.1346887835007751 -0.1528454783949411 0.1210737045175429 
-0.07993752760130886 -0.04467307575388661 0.03351647145978818 -0.0258911769963255 -0.03146821750085987 -0.004626960914169515 -0.003150152197386739 0.1897454690777736 -0.1105066266428088 0.1187134622788185 0.09159824070873342 -0.04659865350916002 
-0.74805888254021 0.02299629006436837 -0.8208438539843478 -0.7253933662268418 -0.5576744713441308 -0.5835742239503502 -0.6270391960756402 -0.02146291472653889 0.4821950475322764 0.9318726389977247 -0.09637892964608302 0.02907635501056683 
0.3990336826428061 -0.2827520288612766 -0.3801821103952752 0.3958105837405657 -0.09966880246185121 -0.1105797801908664 0.08602759817083445 0.2556944744928549 -1.027266844391231 -0.3295514763833489 -0.3606125463955559 3.113570333463275 
-0.1042983175521214 -0.105127894326012 -0.08401264281536858 0.4089771213856693 0.1594236110860166 -0.3617263774080563 -0.2301280329543746 -0.2477845501624271 -0.03815051223824899 -0.2510032287227681 -0.08148123456481356 -0.0198236164806561 
-0.2892904549529606 -0.1783752722317206 0.001909850432862058 -0.4568191998030144 -0.353952238515251 -0.2606615838578675 -0.4247042041788152 -0.01744805858245265 -0.2011884919570509 -0.03635621002361251 -0.3823041623310861 -0.1544274628800692 
-0.06981537171173983 -0.09576154478802651 -0.207863480191885 -0.03912400628604999 0.00202860838742762 -0.1313977886949509 0.04703886014462169 0.04674395407554933 -0.1010744032963434 0.1868131597768662 0.07643547566214763 0.1057272689158052 
-0.09209006671989339 0.02861079663658232 -0.02713269910108821 -0.3742656079793446 -0.03253103506231696 0.01188454290573334 -0.08168787341222293 -0.2148334278732853 0.2326651086142168 -0.4081976295115633 0.07587290397176151 -0.3372051296795393 
0.1330786386065535 -0.27385930337641 -0.08924517602981799 0.0035372375735687 -0.05574425048686756 -0.01899437579405797 -0.376649171447775 -0.2138351789439563 0.5802334643096184 -0.4402258216745417 -0.1063269167878795 -0.3979420805884346 
-0.02765099276430479 -0.6851978676609464 -0.4058442769379845 0.2827868309733213 -0.97394421061602 0.0033753392433395 0.1619148723975242 0.2020977653770454 -0.5156086141834687 -0.04396368749962655 0.6048724586425313 0.06208166394129882 
0.009390746915495487 -0.1026197861929322 -0.03105860361845004 0.1921153075657769 -0.08445819861869264 0.01656519825154548 -0.02945490488037788 -0.1430474188736548 -0.02289046362058589 -0.01086787666326339 -0.1698011801317192 -0.07428061320984904 
-0.940729760036628 3.950692438540546 -1.330394403576223 -1.111396094275241 -0.936148524108782 -1.384666394324516 -0.402926988447372 -0.8220510015807001 -1.139620330178882 -1.134490327342423 -1.336557590098711 -1.366754925568345 
-0.05910175682786888 0.3579906379533532 0.01594972388807491 -0.07317947448073195 -0.1394383065245117 -0.04450002965395715 -0.05257702874451379 -0.2079301133418259 -0.1096549249407011 -0.1642078491355254 0.1244146029361136 -0.1386938366252526 
-0.1099789967468447 -0.1429097792381838 0.1040689690009047 -0.01652922508111782 -0.2749738027212771 -0.04234947899015844 0.1510329977471279 -0.1815273222612228 -0.1126828020207749 -0.1124601384671371 0.1773844831995492 -0.05479855654551843 
0.06701422564822479 -0.2899507741735894 -0.2313952070180088 -0.1340961110582462 0.007390550504624067 -0.4287593897973204 0.3047719645313589 0.9887563398308196 -0.1372632931584447 -0.395232151592803 -0.2531528842833306 -0.2528583170797124 
-0.2735562746641286 -0.3139053199928966 0.681978676335991 0.07329188746848886 -0.3307345411342759 0.08469099869306354 -0.3121219866632653 -1.037367145770397 0.1272237726533785 0.1690633529177633 0.09594089989390352 -0.1456566804823201 
0.01629423953478893 -0.03436469897433001 0.0007101115581343764 -0.09997724656431017 -0.02544838850413792 0.1115814674666095 0.08875278094104612 0.150633742624841 -0.004592567806312904 -0.02608962701543473 -0.02923419228939115 -0.01753190825066522 
-0.03264511202837545 -0.07041676590026241 -0.003448171160167368 -0.0283017128465344 -0.03223939338914335 -0.004999921528251548 0.03438930144124521 0.1301924876058398 -0.05344922333419831 -0.1162336268946854 -0.04899451697924882 -0.02844395815717338 
-0.06315330249293163 0.08619425665018544 -0.5914142727870442 -0.1383324432036563 -0.2077809467291556 -0.8845305238219566 -0.03658329501551407 0.4556426236539794 -0.2513240169445314 0.4602026090328333 -0.1737797599775857 0.04058105101591022 
-0.3075356517491442 -0.03338808594244307 -0.5557266676760453 0.3211481832672015 -0.3062248502194586 0.125499876816435 -0.01274863726063035 0.1271547652780805 -0.1234906593858985 0.2145843175700201 -0.08607019799723407 -0.3289683054643007 
-0.08990220929936055 0.009654258902045224 -0.2809984318634469 -0.3238322155950409 -0.0749163429423568 -0.2664633361354414 -0.1859734816191782 0.2533858156311946 -0.04680266621079748 -0.03320501520563959 0.09279212969223968 -0.1715514962997203 
-0.006582946095530764 0.003046610711409138 -0.0240657571723157 -0.04513595095277101 0.07855591206045098 -0.00479366246487448 -0.04778650125561738 -0.00650700039093415 -0.03937137439678273 -0.0178733336357256 -0.002623942252757918 -0.02193781503978554 
-0.04804133313859236 -0.2032400982379983 -0.336894038901934 -0.2208055477035036 -0.1311672716382017 0.230503167252335 0.1364164813028325 -0.3420785998845327 -0.08926134542984558 0.005187630245301385 -0.2107739655619341 0.5233696189509618 
-0.0356347213578849 -0.06195831837104621 0.01241144703119129 -0.04677685106708347 0.01481360114355418 -0.04508211531754119 -0.03758735889703816 0.05192555752363977 -0.003102054379767098 0.08926863046652062 -0.04329228793605151 -0.01909353577179888 
-0.1266638068067436 -0.07941449415123426 0.2162367842037872 -0.2382682086153108 -0.1595448943040253 -0.0839944316880344 -0.09244288361670154 -0.2595188933646529 -0.1021772569535789 0.08677918664810448 0.008663094794459125 -0.1682537004473116 
0.03592036067902443 -0.1891815567496533 -0.2589326516241315 -0.3932322910132175 -0.0730516228848643 -0.2916946978487693 0.5241815907077885 0.1352331897226991 -0.04377193869485466 -0.3594791522276221 -0.148115276227115 -0.04058066618780869 
-0.1150835063699098 -0.2580172819390703 -0.07364512194141937 -0.2953841766242701 -0.242475442533454 -0.1081852184299256 -0.3911814672157565 0.3471206498854332 -0.03774767364375756 -0.1876722557044674 -0.1381416303649174 -0.03723418576843449 
0.03773344126488992 -0.02539026674638298 -0.01716958449360896 -0.06113624326467837 0.006207154490951721 -0.0906127029210843 -0.004520544582719663 -0.08983594940369952 -0.09439968849448394 0.1455003756725734 -0.0517594186309604 0.05234762605893049 
-0.01907557643322217 -0.03401853276944138 0.06357684052230363 -0.01099514890771374 -0.02939829941332862 -0.02486412084769208 -0.04764743140670731 0.06374797274798454 0.005341028106404543 0.01104745227709727 -0.04765026202957445 0.001406409885169849 
0.06523790509484252 -0.01257049842422206 0.09444055674845371 -0.06847656796042495 -0.01410476164179634 -0.180547951286067 -0.02448219076570433 0.02656364351679948 -0.09379700944655454 -0.22839632735267 -0.01519772270202729 -0.09810454795932591 
-0.07366173885062832 -0.1932497148397178 -0.1090998365720921 -0.3055976760294398 -0.04639567775670937 0.2428116274714708 -0.2069168490910552 0.02582668311344372 -0.2457143599045472 -0.1993211402917123 -0.0863186465334229 -0.1585752409752842 
-0.001286613255179931 -0.02955333614229765 -0.07430375654508269 0.1437179397552108 -0.05760442191087348 -0.134816731550235 -0.02329496443408028 0.03457862068016388 -0.04995947465285593 -0.04515220237195575 -0.009935548458901119 -0.01410045926718116 
-0.02544139246990045 -0.06036549768094555 -0.06801759974800113 -0.08479751419705193 -0.06324181586369805 -0.2110113784700866 0.06751419264744617 0.7960297140014503 0.003391071783900765 -0.1373337058704893 -0.05224643549391021 -0.07728714491756523 
-0.0126695642630771 0.0175920026144794 -0.01466502773272503 -0.07744472889151119 -0.04280011084007585 -0.07353731966240143 -0.007723585545844506 0.02508408020620267 0.03335717494346997 -0.08585560023552971 -0.01203469355106402 -0.02006801715394674 
-0.01408623624428044 -0.05248503049899672 -0.2697153227837036 -0.1415054443121213 -0.1122610690679572 0.4620441357835532 -0.07681439105313316 -0.2223427388254366 -0.04563220967167117 -0.2334955261965931 0.1811518523707742 -0.1267797840745619 
-0.005992626376962719 0.04027068023523635 0.04296520554086441 0.2687844861387 -0.2731795646611376 -0.1813560918594719 0.04179730275863999 0.3660228249326583 -0.3176789108883762 0.4248975348855207 -0.3388170801992418 -0.3432481462935534 
-0.06099171383094711 -0.1881071483796489 0.02225506167356213 -0.08610850994702089 -0.08415554313227001 0.1051872113244822 -0.206171116226121 -0.1795334356062524 -0.03250559495338165 -0.1096625129524631 -0.06980589005544956 -0.0644527836427712 
-0.08256618507130521 -0.1703631910992058 0.1284527489887282 -0.1614568475772679 -0.07087403763859652 -0.1406610280868718 0.09908899570294155 -0.06073373902853866 0.005008007378022141 -0.1463815873034931 0.07573019024369687 -0.0008660190636327215 
0.002236471092236378 0.03039910957610276 -0.005141275729163458 -0.001962896918047404 -0.01410567706404857 0.02695570263241775 -0.01582023774363325 -0.0339167397953922 -0.003942825469811867 -0.09592955081010802 -0.009564955269336995 -0.04262063334142487 
0.4091184586759247 -0.3208884352902254 -0.01277037748834318 0.2347446835348823 -0.2402002853245959 -0.6792790650254262 -0.3891607534131154 0.2919064803329673 -0.4615920103157379 -0.8686501957476997 -0.7003656432279383 0.02772549316115239 
-0.04022436591282973 -0.09904813632371715 -0.06089994827830335 -0.09199542592107998 -0.08433361873990569 -0.1884626756159934 -0.1302773079754439 0.1687522728272914 -0.2182223021129041 -0.3266807004385432 0.03889306899998424 0.3882271149520312 
-0.04233226473572639 0.008930974101220304 0.150833681879442 -0.1239264977633256 -0.02465036144677487 -0.03128193442993231 -0.008609614939434771 -0.01752084310151137 -0.06481456644612295 -0.009544411748745122 -0.02397004163891151 0.01918833720386506 
-0.3887760268920911 0.07442143405398172 -0.6952464065854377 -0.3969889194077269 -0.2680876262155273 -0.7182697369867259 0.06430930157325296 0.0350527734911684 -0.536268647148972 0.4810303241671491 -0.05982570495125941 -0.5553129188229792 
-0.5453393445436304 -0.2426767152392392 -0.5490036570395314 0.02474795848883727 -0.2803277397854933 -0.439286033874994 -0.2888896841122759 -0.1373527098025939 -0.1480168871433254 -0.0923709001411883 -0.08393915027132813 -0.6136898590935859 
0.0770365727019181 -0.05774467443020074 -0.2505140827500573 0.06873475554658547 -0.06232989342720532 -0.1623531593637458 0.1365351123414425 -0.1011218792957501 0.01919956216373573 0.06279368704025776 -0.0448041683687062 -0.08158980449711217 
-0.4723002024092608 -0.1472489412062867 -0.4042476629256861 0.3198181797677354 -0.5325323222634228 0.2863188806381429 -0.6217044800953538 -1.009980121059989 -0.365931400446482 -0.03736799275430615 -0.2543755556419001 -0.3951160425503737 
-0.3857539574436909 -0.280236348133963 -1.24692268964269 0.5331019996672741 -0.2710994509234852 -0.5681230913790822 -0.7573529147093777 -0.6474594847271741 -0.7694262199512527 -0.4444865106801001 -0.3856444398609634 -0.5664805153147571 
-0.04037979883944379 -0.07512301327310532 -0.01838710619419619 -0.1810529041243801 0.02772302073645208 -0.1213275532963176 0.1700191437566494 -0.2075510796612177 0.03830833320381934 -0.2917272369686711 -0.0769830789157771 0.008312368090209844 
-0.05749653517445875 0.009541113711004225 -0.03499292881817644 -0.04185442718298069 -0.01101192948079824 -0.008376174615457773 -0.0184335552667065 -0.01262319980318978 -0.005246957940258094 -0.01128869833808714 0.0585510444717889 -0.02056840745868294 
-0.09278138344865876 0.2316982784880042 -0.1279965832449858 0.06225470770886104 -0.06025050136716065 -0.008058024907338384 -0.1724675328462135 -0.2025400684579024 -0.1607468341784402 -0.1016808036280428 -0.1569983788817461 -0.1214684970068961 
-0.1599198582255666 -0.004673449728867619 -0.4683277883071775 -0.7825658500108136 -0.06961173213953153 0.3131505362040785 -0.6772260762113667 0.09313185349744355 -1.028029041386896 -0.2571665157440496 -0.2820606146564106 -0.00300423381264093 
0.08078352498344502 0.1022911468625348 -0.1411683659529273 -0.2114632255742338 0.7312352437663201 0.2883341972279037 0.2208991469496191 0.2832174425040371 -0.1670631736776325 -0.07787553928263988 -0.05007687881070894 0.3378664732586212 
0.06907564038604158 0.005925085225992252 0.03385022518301442 -0.4948316419175963 0.08888868707105478 -0.1399113069407688 0.1163747118350656 -0.1438797232429614 -0.4985636341618417 -0.1492293327584102 -0.07699228810835015 0.3534074193174293 
-0.25119079979889 -0.4246586922719148 -0.2001862029263552 -0.5772098411544017 -0.1200239989684936 -0.2595070413099627 -0.3914451864380199 -0.02052280761966647 0.2970342026676711 0.1366123914436533 -0.1244193915143184 -0.2915819849599939 
-0.254978368814555 -0.2973157173111513 -0.6955538938698921 -0.5931590886361739 -0.3542581541390927 -0.8589435000910323 -0.3250521146209649 2.460290109114255 -0.1285546840219702 -0.6832734287116639 -0.2255971374347586 -0.6877283867345959 
-0.149363354598926 -0.5170691271094838 0.5865502275758302 -0.5816223661775558 -0.235496945086272 -0.5470003691592333 0.3106904104127713 -0.1154673163538836 0.004219843762982868 -0.2507828065752056 -0.4137699932885622 -0.3982090255620567 
-0.0001109328322066267 0.02280133868369893 -0.008523937211269468 -0.01701954082054041 -0.006280652120443611 0.03473282839604876 0.0388439395099321 0.002902484669228562 0.031146146545707 -0.05551497009471256 -0.008187666648517104 -0.03532941439551598 
-0.3065015174971911 -0.2457838194203302 0.2802928145513254 -0.3965021337276491 0.1601478269802254 0.2217440263799893 0.002291645563519267 -0.13894685445038 -0.2398562757024985 -0.3313140078691241 0.01313647105262032 1.474649128757736 
-0.1169472540207438 -0.1896242576943552 -0.06763300990727276 -0.2840635887468309 -0.2943103303294956 -0.3168744691385041 -0.492225085352988 1.226429515678351 -0.2545327281663456 -1.177776258259716 -0.09587986892341133 -0.267421620841699 
0.007304270807756207 -0.334593177279386 -0.4094864454694055 -0.374749241452904 -0.05628547065921672 0.3967868493196335 -0.04908640582091703 -0.1360395945226848 0.2705202915266977 -0.03724342482522822 -0.1436265473229428 -0.1267652096422919 
0.0245347464993597 -0.01230801729965866 -0.0008375466339317591 0.03791580437626699 -0.008487280675820401 -0.009772150663490284 -0.04362671704666161 0.0121015866568348 0.008600148367877718 -0.02757276009509598 -0.009817791378072651 0.0630321217231964 
-0.1417957452631246 -0.1919882453618498 -0.5328939520324619 -0.3689267375033495 -0.276186687468886 -0.2028080164474296 -0.206316758355062 0.02383717766301395 -0.250275779663568 -0.4919457032897308 -0.260237109216704 -0.00794836070033717 
-0.02439871808525681 -0.01033102664167397 -0.04248505919687538 0.00660212465203681 -0.04698014223490076 -0.0108155352564547 0.0353626017271168 -0.02204053944645128 0.07000937530965007 -0.03962194549350666 0.0004035381395023869 -0.01463999823988534 
0.004453477664415687 -0.1998569011046764 -0.8389987207073206 -0.9111360506619424 -0.2321801806000898 0.4341850165200981 -0.6872514635731179 -0.02114072888902642 -0.3170677863354876 -0.3843603273653153 -0.1350180123801382 -0.3348856734848351 
-0.2356809025809765 -0.3775318683808982 -0.1488071866314543 0.1955556450743567 -0.1712031449332375 -0.3339282228003469 -0.1369352908547301 -0.2803877132913264 0.9140809607205567 0.1999866896634949 -0.2825762410083835 -0.4537729589704247 
-0.01685884057102386 -0.0702775809765319 -0.06656038068870811 -0.07452518066416346 0.002299030472067309 -0.005259660970154695 -0.04524098633481728 0.1292888380817319 0.05678865448762342 -0.05655706753124946 -0.01123226134365495 -0.1414172285034783 
-0.01051483229261013 -0.002987562998443134 0.02006803119961319 0.06473367801526067 -0.02710509151151978 0.01732927661664874 -0.09220472208300397 -0.04269962104957173 -0.007985335499648142 -0.02471000508038653 0.002022464111104248 -0.01074565890022733 
-0.2085428268851948 -0.1608594086099663 -0.06029428767077707 -0.1876983537811794 -0.2721812474953386 -0.4104809226517911 -0.3701667312543238 0.06637337042560307 -0.6468956144051793 0.2693845292700449 -0.3530020665697943 0.02600058546344222 
-0.4781157859868349 -0.2164104587534079 -0.5432893544860823 0.3221275784970075 0.7366970338944125 -0.7757517287787785 -0.3887599757132518 -0.1197812398631458 -0.4881497218718335 0.1772093998024303 -0.6669212201142604 -0.2578966318590534 
-0.2521338294297908 -0.1009032158957914 -0.1414424828672727 -0.4096983670419566 1.106317124824018 -0.6012360763396744 -0.3594728846840747 -0.3276811227217601 -0.363513133992062 -0.5989957587927323 0.3541781262088747 -0.4751456362388206 
-0.03094065810534804 0.1186387767780952 0.06207148094243765 -0.03627183601223223 -0.04278062080349489 -0.06762411245550019 -0.02733650049590916 0.170601976789502 -0.05243483076598789 0.00117124496174374 -0.01401875326586184 0.03846469083602498 
0.002599547287336402 -0.01586006046903025 -0.06582271230463388 -0.3007351995590879 0.008669002513695167 0.2575884443202179 -0.1045704270789938 -0.3745367662754151 -0.1763422933508226 -0.1082682155851527 0.1667799371133093 -0.2104563137953105 
-0.7777818510703397 -0.6576552775840367 -0.2361283544398476 0.4957061229897207 -0.6589325152118222 -0.4609520195979701 -0.5696315172152626 0.06102780987923299 -0.4318230505345138 -0.3203448471376541 -0.5913375588232697 0.005188128647605836 
-0.1381763891174054 -0.133141137180248 -0.2056757808397064 0.363731636718055 0.1667522613351971 -0.3180126482124077 -0.2473510293332162 -0.02112314964558782 -0.1334723093008726 0.1200861239882551 -0.1615731939671309 -0.1463132451615055 
0.02356635837218577 0.0005285697564799393 0.01354269797479388 0.1886805030604848 -0.01325671507013211 -0.02028363469623876 -0.04985043860837712 -0.2044384933030192 -0.03270652513702701 0.02216741096238151 -0.02117172600888428 -0.009977571289797996 
-0.0890671872002041 -0.2252989655918441 0.05829571859988865 0.2723145617519444 -0.08307502395790206 0.04102719505627152 -0.03396134174551765 -0.3472206869096494 -0.06324011752693423 -0.3407644114273349 -0.1516548907382741 -0.249869130680969 
-0.1249673407433679 0.02486409522802049 -0.2247126374145279 -0.0881505753303031 -0.07116181761446315 -0.03182363408226932 -0.08656634030233772 -0.07928857210073743 0.08510489586145854 0.3746946144358932 -0.1038785900469913 -0.03409726430309611 
-0.1441726242456958 -0.0746787770270978 -0.198577660380045 0.1152497405919692 -0.280735642583766 -0.02231535843897895 -0.2371741314229037 -0.1358705480453279 0.007926753025536125 0.04587100850916544 0.2488067541017064 -0.1466576990274655 
-0.2120944674109272 0.0749739627955526 -0.07418480515882676 0.0266518917540443 -0.2725127012928304 -0.2983573775409509 0.03698333423021432 0.08846191373617406 0.06878552879026376 -0.05792558738552755 0.4031403395691792 -0.1667590488325578 
-0.1511120363438196 -0.2767139656579401 -0.4600632179358319 0.05507547533071384 0.0323208546728995 -0.2657951336331242 0.01825802341626049 -0.0525928294869105 -0.7314091577130583 -0.4279144448929401 -0.3678147702743912 2.25714972159642 
-0.1731169177932672 -0.4295111044579494 -0.7546562786150853 -0.7952951384939222 -0.8559957031620338 -0.8942885999074506 -0.4829927092951083 -0.577999004959261 -0.02977800356046256 3.200401171621305 -0.3213968265021589 -0.7003761051284116 
-0.05420091553121338 -0.069782150526864 0.02213827983438873 0.06482706785523759 -0.1044995297363163 -0.08299158478111113 0.02890021401891235 0.1579272816228534 0.1749164606850734 -0.6141694984495965 0.01106490739142033 -0.0007664643450454722 
-0.02992573686165068 0.1704328467096739 -0.04856541829908233 0.2122094781089382 -0.0001929604315722971 -0.1883338646869525 -0.03930707020497396 -0.06595509058765796 -0.1868817442388558 -0.2383670883079822 0.006522895518920289 -0.0417190095279506 
-0.03530806740323197 -0.1365178076997658 -0.1338924585303844 -0.1755585026090261 -0.06791994222482906 -0.1677861471805611 -0.168856607003261 -0.2361535709317663 0.3824390334829135 0.4467337747179743 -0.08810938465597608 -0.3127471039178534 
-0.06056152525136611 -0.0577830051745471 -0.2200576645937335 -0.01146351526326779 -0.1209925284307398 -0.1178326175362084 0.1024002206098602 -0.04558104888112818 -0.1226686851554753 -0.05343995558899774 -0.1101884647636214 -0.1560433269714378 
-0.4517069629324488 -0.5561186613720935 -0.3702660529032135 -0.863957813560072 0.02768007197065916 0.9971085822124012 -0.6927899402469023 -0.5219117347047381 -0.134213543947887 -0.8345538619853129 -0.5936549829591201 -0.3216654304585359 
-0.209846277913835 -0.2565376906942515 0.1593058147539043 -0.09449245143334543 0.2291146679817228 -0.2768310018674549 -0.1699774345184001 -0.3388090758834799 -0.3024308752410031 -0.1801191716648152 0.3717001544138177 -0.1354872858270181 
0.006942885583412114 -0.05903713740674685 -0.03085210298065816 -0.002097301173704851 -0.009212500900494148 0.005028641488756165 0.06768858025073463 -0.009685394692449667 -0.03284322113458008 -0.04120359155575056 -0.02101640175015107 -0.03715218919378969 
-0.6111049605750802 -0.3305535300424219 -0.2692697754283863 0.3741432843193438 -0.6229308787480117 -0.4127492479883079 -0.4799809142657984 0.04400867088522596 -0.4513864525136699 -0.4924363176980339 -0.8358992340598933 0.08354487978164168 
-0.02094550028924161 -0.1053182253743423 -0.01694346927998997 -0.1558970483814558 0.03250499515342391 -0.09411140428010882 0.1127786771176037 0.06291363145638421 -0.01120639900926329 0.02473575264516863 -0.02381210203888888 -0.04462415979505365 
-0.1611492127449858 -0.2888669584231437 0.01436600766013392 -0.2251235828920146 -0.1261679889695261 -0.09512189584127329 -0.1036754414926587 -0.09605299436147829 -0.1023531095071044 0.360586391850711 -0.3272685620705519 -0.2573795817017563 
0.07549849477447379 -0.07042139579113613 0.5025478562150929 -0.3725773916216879 -0.02376002790937663 -0.263096985516157 -0.1105927003381283 0.3967561824744395 -0.06263830549344458 -0.3281470584828788 -0.09941229012654178 -0.1530680494079371 
-0.4807761742718583 -0.1238513082441663 0.1840214539995377 -0.199737358422335 -0.3605067916680175 -0.4898755156125551 -0.2045441605786237 -0.1481498984639003 -0.3654042255203329 0.1369865514492596 0.2921395480259671 -0.458014564570839 
-0.0830366207374429 -0.1336959123481891 -0.03973415905316344 -0.2477699301919106 0.08160794826062157 -0.184557770688278 0.08325098813112829 0.009601191016551665 -0.2407832068339112 -0.1623218021637456 -0.1029577663379724 -0.03380713723743756 
-0.0006703876886658632 -0.002939141509863281 -0.05501238776473079 -0.01338307193457327 -0.001598717820507849 -0.07438197823429775 -0.05240385569674978 -0.1045704541023939 0.4228550864285472 -0.02010063561750471 -0.01034133175136992 -0.1291956403593991 
-0.3163872260096995 0.05015637994157725 0.02937345014436798 -0.6532745702442431 -0.09380883763454435 0.2806404032723643 -0.2848994429602271 -0.0919305112443639 -0.1753477276426045 0.1637990734896392 -0.1722078654940035 -0.2040865290888369 
-0.007054927513535548 -0.02274363693275823 -0.04698037452383689 -0.06168037112818136 -0.01184375587777656 0.03735986333857654 -0.01321771652051504 -0.039912747430136 -0.02418340328416328 -0.005206087082907127 -0.005021354473269055 -0.000663898277033062 
0.06122863965271726 0.005335354442641277 -0.0150483951993212 -0.01346265407180641 -0.01352967484659233 -0.03394374029521986 -0.01764115056965699 0.06720522571071652 0.01980596953982463 -0.1466027531125614 -0.05666011574298753 -0.1861086125174591 
-0.1081875289457031 -0.1967192848081303 -0.1742944372861048 -0.06039558812334048 -0.07353308892350914 0.1619023934832047 -0.05748059940528454 -0.0367746497436816 0.160016451788934 -0.03809387400157856 -0.09503415980962819 -0.08774637593586673 
-0.310590582164219 -0.509235889192868 -0.4801933622283365 -0.04715929230381145 -0.3679069676356286 0.1295250937685715 0.02518618985415304 0.1087805960095341 -0.5064299644101243 -0.04377339489697327 -0.202371494075945 0.4962064270041621 
-0.4519065947833805 -1.016774845839583 -0.5573855957331332 -1.705202901396649 -0.5592850769078449 -0.8930595340864595 -0.902295630422308 4.900798107065291 -1.163472463330906 -2.130461666420945 -0.6641271128591356 -0.3994551793346742 
-0.09631017466763253 -0.1801388819819706 -0.2482526750401496 0.07156549389668204 -0.1061102219855337 -0.2077363113180553 -0.05288423047669547 0.2139862500756666 -0.1229842864632996 -0.3588581217416633 -0.2678094536019818 -0.2140787750345584 
-0.1138975631872926 -0.07552683314740488 0.1144308144182716 -0.1027214775628096 0.1018852069660983 -0.3522312450352054 0.148863832416376 -0.4152875661771195 -0.208703377497181 0.1983564828487771 -0.2987706543902349 -0.1744493119192062 
-0.2509041841262604 -0.169309893065421 -0.1856165977657485 -0.06717686650007555 0.05211593474588567 -0.2013517579854813 -0.07869334164851739 0.02804294321098326 0.3653368782406285 -0.3607990131158377 0.02148092247953618 -0.2519448133441208 
-0.3764061191032006 -0.690230786500304 -1.058549481176163 6.773046643721978 -0.3605696001842455 -0.9424354871701534 -1.708488406053078 -1.840508327103404 -0.4654427445758195 -1.017930588944727 -0.3938483560113611 0.02490133008138614 
0.1044759928365903 -0.03663147975198719 -0.002956623868203057 0.00677380959596304 -0.02377491050165309 -0.07699116086767703 0.08113569972975905 -0.05491591105822646 -0.05965053267662641 -0.1040842477413673 -0.03193160098306437 0.01291106460002891 
-0.1907947369842189 0.05013999028813287 -0.5567485981339503 -0.5085062757621761 -0.2037637077387348 -0.06215125428173816 -0.330511765471488 -0.5073374974504086 0.427066377410628 -0.8697779707689482 0.3268199418479624 0.2786512951404431 
-0.02536494178247854 -0.05627120790413373 -0.530096656382387 1.606483642171249 -0.1352163613526335 -0.8215564927294273 -0.2787174033261255 -0.2904021656365622 -0.5066140397375664 -0.2045866422686405 -0.1498244449369886 -0.1734698295630501 
-0.1512464564605183 -0.06933700976890431 -0.6578926905967412 1.036831092972299 -0.2761871291979046 -0.2699594656610181 -0.2833916865965451 -0.3065602113870775 -0.2334820552397282 -0.2685364423736428 -0.6284832509944359 0.7475950459749016 
-0.191819136434415 0.06866194596581246 0.492021129574694 -0.2164429514395486 -0.3153586734427469 -0.02244871669784999 0.08184856647440041 -0.2500493651430701 0.04423966286957449 -0.4285055439628216 -0.01473678816750684 -0.4796135675028638 
-0.2224115401147732 -0.1924073633370229 -0.4379029150626766 0.008233115543912279 0.01633017040677838 -0.6397992771869612 0.4727322595729005 -0.3949559853859682 -0.1584847019118686 0.2878672431007085 -0.1927461007644 -0.3450987793455406 
-0.02341356467277819 -0.008762520385097982 -0.01045031117264575 -0.08109217505341956 -0.02959435089609625 -0.01258813831500485 -0.04100049612548744 0.07924858091805331 -0.02034800679309664 -0.0381724757754312 -0.01057409677499972 -0.03150485469713132 
-0.03179629280449651 -0.04624822462457161 -0.05664284728328383 0.2320930815737202 -0.04988511274415039 -0.1932247028229943 -0.0185067656394819 -0.0902508172180015 -0.09729443997944552 0.02073694462776099 -0.03586475899164139 -0.06366473589396537 
-0.2261254191081285 0.5740676683680574 -0.6340019179190004 -0.1765248940533873 -0.1786294056769283 -0.2738557373370079 -0.4707279333091837 -0.2217317977338316 -0.4673802863713342 -0.2801638565894192 -0.2734334994804785 0.1114765477089178 
-0.281861424486366 0.08272030246504007 -0.2131690241845837 -0.4808728166412381 0.2969115761795367 0.02793636621993354 -0.1168717148048727 -0.4226042290622153 -0.08386801013171037 -0.00424946508256782 -0.2119395814068693 -0.2224984668909351 
-0.2284689567062903 -0.1632725911856906 0.2251710913173798 0.09383971990362319 -0.2045537223144023 -0.2148622080377212 -0.2219920539955962 -0.09034798598450919 -0.6021620868098312 0.1580754910845583 -0.1495262318028956 -0.5215863967030102 
-0.2539225143365277 -0.173742985270646 -0.1539562060222102 -0.2109070913213078 -0.4767939713697514 -0.212001767586762 -0.2488101153365131 0.03749212134094629 -0.1024953677406765 -0.4901822896324614 0.5241188281836929 -0.00869773566325591 
-0.102186813996274 -0.1343386961738072 0.2089816361201803 -0.4522108776450098 -0.105092511285129 -0.2025948916994378 -0.1684470453645676 0.9160546018354484 -0.2116263477289238 -0.4747375932639451 -0.219004746840665 -0.1426474192592647 
-0.1051216716886043 -0.08410971418386227 -0.7644740314554724 1.388109356644194 -0.1016303536302179 -1.01788142698098 -0.6050132158552808 -0.4888410145180393 -0.5888800726566797 -0.4627317432762816 -0.2286173007977071 -0.3346548391540185 
-0.1121164714176732 -0.1263615123259873 -0.09598600098919609 0.0665341963326881 0.01303849674731074 -0.2530444106203867 -0.09006357125180407 -0.1924073203063104 -0.2258102228267062 0.1283713720220071 -0.2323908420001552 -0.01658516337680391 
-0.2370416794385718 -0.1754513436455119 0.3585815485436853 -0.04632697566608696 -0.4122864752011228 0.2975106064618672 -0.4765019067919911 -0.4484806648242263 0.01684201653479958 0.0368302274342062 -0.3639281982734082 0.01299809369679049 
-0.02557826030778993 -0.03190066790813159 -0.05462322518665695 0.0008283496639108635 -0.03923451325868881 0.05886422370688423 -0.01873044938002701 0.004552049408161313 -0.02036839734296992 -0.03041457926963873 -0.05086999768940345 -0.03034467107031784 
-0.03295620207810729 0.03453034386359785 -0.03719950387723836 -0.0113116832355632 -0.009028578173904674 -0.001000306657883682 0.005799263178315941 0.08373004876035328 -0.01248608593840732 0.0408578063270482 -0.01198248026869481 0.02029592541360374 
-0.01449987237839256 -0.04200058381986936 -0.09279334769399195 -0.08022852462220691 -0.04389140483297981 0.1287702700955421 -0.05169444877413785 -0.2166724007771537 -0.02632843597499549 0.07828167149105004 -0.07283458502077843 -0.0446017430042575 
0.01917531723019444 0.2081766731230807 -0.3146870026624715 -0.2113109251732783 0.1110441864224202 0.006041497749119018 0.0203623032754639 -0.0910585157988644 -0.2873038308635448 -0.3267286548128109 0.3696703603467574 0.3650903014796003 
-0.08594758946872506 -0.3207005634321962 -0.4438299238130065 1.711315632147889 0.05269901381042778 -0.3566786516538361 -0.3852034271698723 -0.1015218939421721 -0.3543178013531676 0.08803898515018828 -0.0683694649707136 -0.3488367513203016 
-0.0643387062252512 0.1498954754034422 -0.08091488903025842 -0.06242944528336952 -0.1842682278917469 0.2550868233289084 -0.0487985618494023 -0.03826437448166079 -0.01426483222875727 -0.1796614737140217 -0.08531192020247562 -0.1718223440638704 
0.3575653858047627 -0.03935368785319169 -0.1460143609471147 0.1960254150881887 0.119569494153645 -0.3653177716190662 -0.2572136710946944 -0.09539000722907766 -0.06191565091983196 -0.4917536528327385 0.002549332962692201 -0.02133073058043609 
0.003759939065750895 -0.2196294647960577 0.007967769961570568 -0.003386632895057197 -0.02950548609195556 0.03644859771283269 -0.0605793097601481 -0.02324059585245791 0.03206608442521117 0.09121300217813806 -0.02032310321648732 -0.06356625904642256 
0.09123524927001191 0.08272579692675157 -0.4018577469471468 0.05488840148918053 0.1072483228248101 1.095395635450533 0.05662466766395367 0.4724874553122897 0.007966328155795352 0.2391363828352771 -0.3134496342378267 -1.078624805640658 
-0.05728697717816291 -0.2226323202777116 -0.2863486528122215 -0.0369560870834406 -0.1121619202068903 -0.3098369135386918 -0.6196337453910015 1.015863782080388 -0.3661009693948494 -0.2560574073439872 -0.4343781349634746 -0.3617243521417736 
-0.2275458177881836 -0.3406051662270548 -0.3697866411260949 1.770740784276241 -0.1998068687605172 -0.6136145964886484 -0.9727901292130627 -0.6374241296704007 -0.1809429752775373 -0.353547292991471 -0.3995499956123245 -0.05124420297236042 
0.00310501580952641 -0.01131444166711542 -0.01992937152147984 0.00681688616941686 -0.0007054066550298006 0.05750897730981808 -0.01868622393819187 0.01821717616828943 0.005809545126413863 -0.03764887726415853 -0.01365151433764233 -0.01426425448405462 
-0.02529717561037736 0.0200110594462705 -0.0597116240337839 -0.05751367266197508 -0.02435479835597863 0.006685013146829199 0.03966617060847738 -0.08535258126537265 -0.01149939113510176 0.109307968737216 -0.06736966976993503 -0.03506731955415462 
-0.4104246621669542 -0.1183251374134748 -0.1623504153086879 0.4221602023510782 -0.3536576989844296 -0.8920821521158191 -0.6038635552264536 -0.321028459424941 -0.7456919638082076 -0.07853310360632862 0.002927140873696001 -0.4296766304744593 
-0.2494608481444744 -0.08354263857975884 -0.03581399597044116 0.06079046870185419 -0.1043304497151081 0.05950443960464766 0.02892246979847926 -0.3385671803892849 0.1736584526809787 -0.3995737157473035 -0.1006844940383258 -0.06950885065641657 
-1.51916226035322 -0.2475224749084003 -0.3527919928135677 -0.3891017928964179 -0.1992013597988237 0.4019376421043523 -0.2767032845472409 0.0169640008029055 0.2865380646116458 1.520759999812187 -0.113890782479656 -0.3003650843410344 
-0.1455025643920918 -0.2505295831125439 -0.5469155445857161 0.2209811867459505 -0.134517171909753 -0.01566488405236889 -0.1163427223007788 -0.09379784882860913 -0.4691169328047655 0.1175737358444563 -0.00676981525585992 -0.07972584888187292 
-0.177239624469361 -0.1876170465541404 0.1824528870748869 0.04429583112423424 0.1136017574439642 0.03605855462515054 -0.1971703201269894 -0.02990430927517066 0.3514551180793427 -0.3147974371064427 -0.06387328040003233 -0.6978074472711657 
-0.4651334349703237 -0.2881818509177301 -0.2160496128602683 -0.4403874435119028 -0.08040251683004838 0.06069455522503822 -0.2807467757500985 -0.3805732735172827 -0.1706685029040932 -0.1959978492127746 -0.07475600269886112 -0.08074411703428638 
-0.119358341306136 -0.07262193331579878 0.1872162869516339 0.2776186756007124 -0.1372243832990416 -0.2989949624988225 -0.175594279827975 -0.1434153993327922 0.09840942676258324 -0.0113737554541246 -0.1980860140869677 -0.198007450856241 
-0.2643637052499588 -0.3981331573617218 -0.2483621859759145 -0.0443340752232556 -0.1149571804223386 0.210479979850287 0.007943870646854468 -0.07255582105646718 0.05857141565538774 -0.04078844242000277 -0.2025217787670436 -0.1844145947316884 
-0.1618087337950435 0.2057983906402925 -0.2510136615068171 0.4594470618710189 -0.1065861126130108 0.1107839920380101 -0.2564195614942125 -0.414404164378001 -0.6651305776760715 -0.0862757432663248 -0.1426299856120974 -0.2088757174674622 
-0.3206272510946668 -0.1339581169840814 0.0748743818832607 -0.1458728494850033 -0.008663677261123208 -0.1378559648387147 -0.3564552577981014 -0.02718524596440559 0.259212641695756 -0.02707505922748022 0.20051922879046 -0.3620346270913423 
-0.00533140284901033 -0.005718988357306725 0.04469121534636392 -0.02013228206534295 -0.02159255583059001 -0.05200485203486475 0.02257041862713271 0.02870947661741433 -0.03157876463726023 -0.05597998327089931 0.005738819849304853 0.0008517565944350583 
-0.1467593942726204 0.02810334643755253 -0.03834645800924136 -0.8404263251942331 -0.2209462394749222 0.224557412361132 0.2672967532780215 0.9529181924606526 -0.6821996888537079 -0.3526934307477727 -0.4241805190557472 -0.004156240835394329 
-0.07350988522572678 -0.06180406425020103 -0.07274199336637137 -0.0006552949847918614 0.1192555496043089 -0.0784291675095246 0.03877528741926307 -0.09204251834888429 0.09119969702135572 -0.1217379001515808 -0.02367883347601131 -0.1665112223250058 
-0.3579783627077529 -0.4554081239898011 -0.4659225229836272 -0.3862450580893494 -0.2959723109589142 -0.4613457664398924 -0.3167731818631703 0.1450861389461567 -0.2923510029115365 -0.6562961755985292 0.1051851780734972 1.05706579334049 
0.1684240262588214 -0.1217701110504561 -0.2883377054291774 0.06941463747681563 -0.02517734959867264 -0.4763470516230698 0.06472583800522355 0.1617399325288127 -0.0380013343358337 0.2474505170468941 -0.1422387880562847 0.6206691724749348 
-0.5997006597262139 -0.1768303620645806 -0.1769060968187277 -0.3714914011997499 -0.15402613332335 0.1767521508654094 -0.5323301912015588 -0.4420103699951325 -0.9210426915701395 -0.1591283612259951 -0.4150487750814966 -0.663004680188349 
-0.5445544799720045 -0.1112842539596873 -0.3593304860694494 -1.268858721867194 -0.1320176671364156 0.08938933674730321 0.008502419946385353 0.01428553196798626 -0.1047318761084271 -0.07362625884276078 -0.3519366547639978 -0.1060961353240678 
-0.1382528312274512 -0.1504552808888639 -0.1858387291184 -0.129571795522633 -0.09767785482482878 0.02239979553582526 0.02151777384091162 0.05664977537809057 0.05297504313872116 0.04126616407939405 -0.05870457896506998 -0.0614080399094831 
-0.1255826422910252 0.05806878894602079 -0.07688407442403587 0.201645472236243 -0.2205185314724901 0.2353622634310816 0.06230279113705658 -0.05534564849389233 0.04527138259326068 -0.06916766856924027 -0.1081730842687743 -0.3512371736684898 
-0.06380654025829234 -0.5169758928865931 -0.3886271589074045 -0.3436764342076167 0.1363748487453157 -0.6504941674570729 -0.6054717309244899 0.1905353428586783 -0.312458926467687 0.2609900463146323 -0.1117147345868226 0.06944685913613066 
0.07258987453503983 -0.3559952196635339 0.3374333028272329 -0.4620412616608133 -1.138690271220524 -0.5347514355915367 -0.5625759058168827 0.06981248538671857 -0.6622700520260487 0.181303334260559 -0.4654290393661428 0.8075205782988761 
-0.04893363335654601 -0.05233379665328668 0.1754077479924885 -0.06733405449099758 -0.1654261717730601 -0.2975584931046101 0.003260719163315959 0.02568527651969236 -0.3617617222379809 0.2309573242633882 -0.07959961267982187 0.01893258764174051 
-0.1484283152964435 0.1638612004289802 -0.2145560236054342 -0.1388155138173949 -0.2767212780764789 -0.4352493492286886 -0.3875038267996107 -0.1588790556585849 0.8054039175868253 -0.3914058595222662 -0.1698973710689262 -0.2194166477211 
-0.03233153545238835 -0.09044808104852896 -0.2091471919008618 -0.05215864915906475 0.1680229039945642 -0.110576382216114 0.03853431698062452 0.1237349859764417 -0.1260232367428108 -0.08812684434655804 0.2156068743231504 -0.05213423296647925 
-0.007531666758652646 -0.07242616089604764 0.1452602476284481 0.5503267271019739 -0.2973326604745444 -0.369467869465844 -0.621256964782575 -0.07818975068247075 -0.1627816021210783 0.02108131146935484 0.5602761473600871 -0.6840768416936578 
-0.03934985408833678 -0.04616863536175751 0.02611584712720719 -0.1968772295893042 -0.02522535363018394 -0.1722684682154297 -0.009161489880398202 -0.2716524156394914 0.04336250477920153 0.0353673047861875 0.01633471580109474 -0.2091123836357943 
-0.2427047498909329 -0.1162070397965229 0.07739539433616853 -0.2766408323086391 0.2708858219412218 -0.1213128578739488 -0.09890699949093294 0.2085342682605696 -0.07389454953916239 -0.3465161146949695 -0.2420233247620275 -0.1599854236433751 
-0.3348312472965526 -0.4320193887121956 -0.3476691623174166 -0.007718622163199262 -0.1887470781840219 -0.2047513507813358 -0.1133629921336372 -0.02678226119714911 -0.2176750381663068 -0.2101490068182345 -0.05729761186749589 -0.08085972976056595 
-0.05314322489916974 -0.1320742450146885 -0.003133875651733916 0.3398563514177705 -0.08351739448402865 -0.2087352813861866 -0.06671388246457954 -0.2217808115129711 -0.0905216992773952 0.0003437715227036479 -0.1085969215485598 0.008833383319925956 
0.3740721629486219 -0.08987219649241085 -0.6293406415617622 -0.1250984315460892 -0.3131831321331212 -0.5518434347829291 -0.3359762173973855 -0.4838797032026274 0.8176558246879104 -1.04885915470153 -0.2799529267387887 -0.7211251669167429 
-0.2363174428530991 -0.1678943465096232 -0.2769720370745439 -0.02414007462854134 -0.3177609828771343 0.2296376894725281 -0.07224814489068158 -0.2345318785759233 -0.2393017317207629 -0.399957712829661 -0.1119141279291331 -0.01697242171002351 
-0.3790294056523876 -0.2757662949319487 -0.2641781544741456 0.3251388840954537 -0.5230685217336603 -0.6915262495962432 -0.2849749317841772 -0.3192822459966094 -0.5553378897699639 -0.1202839098082218 0.1139904186979124 -0.2341786398113639 
-0.1570388693149251 0.03479677311358511 0.09335884886363331 -0.8247515153964433 -0.5336710156426628 -0.3525715014839438 -1.203773120484097 -0.03619091929168341 0.1204670684865564 0.02114360297343336 -0.4022267537758657 -0.2704508047202632 
-0.2808209127362363 0.08763476760491307 -0.3313169277347467 -0.2308928274464016 -0.01322891335678755 -0.03561670355866886 0.5258557199523977 0.6177820027283376 -0.3159333224860741 -0.2758017031295774 -0.1407544422033033 0.3181738494642237 
-0.1354763907551875 0.07033500099092373 -0.2200621974991019 -0.1985969518712797 -0.1297623546285772 -0.3472947186379369 -0.1113345099072529 0.04775692432584786 -0.1106949174903707 -0.172641957965045 -0.2238468697990321 -0.2167608898544427 
-0.06859719611961285 -0.03384993195406767 -0.03356208728298726 -0.1503358200068892 -0.06808404430213383 -0.06824357472682151 -0.07784771750654169 0.07664584038905653 0.02944560528949784 0.1856216310324486 -0.06592613364021155 -0.1267946725915233 
-0.1052645195905256 0.2112217763445303 -0.4125385936657892 -1.289007081066855 -0.05427189775718026 -0.1330635852794073 -0.008593383868202756 0.3767291598576087 -0.4916771763145477 -0.2647100322238505 -0.1168338395832422 0.6043997457389888 
-0.3561195431227465 -0.3624907046044692 -0.9435557523935992 -0.5661604087348968 -0.7353209324747653 -0.5601936174616121 -0.6979426961738999 1.362471047087908 -0.8420320135336237 -0.4305585396670847 -0.7195375936234115 -0.5839972441410749 
-0.1130634973535315 0.01350113265931447 -0.1121161600683043 0.2584737362735016 0.003874994112235124 -0.07764760478919366 -0.1417222026163487 -0.01824737582351374 -0.07489480793857883 -0.03467140992322622 -0.111013576808383 0.1173348484542886 
0.01460455219257538 -0.04211611264369951 -0.06001743965988876 -0.08652700739358173 -0.04903656445553367 0.002210619981257326 -0.02409364392235583 -0.02429502563410827 0.06620661468393706 -0.06100909888208109 -0.03988724097504661 -0.09378302274175662 
-0.3351027095348529 0.3434789024706602 -0.1413814054318453 0.440383773970388 -0.312280516048858 -0.1926597344149309 0.3373571979959268 0.6594270549517166 -0.2727525544617001 -0.3685255880858849 -0.4712908854328914 -0.266635335474365 
-0.2544675319776812 -0.2545834541189037 -0.3170441076946677 -0.07259004968408511 -0.2067995177269917 -0.1718425162726986 -0.2818699392046273 0.04812277122258422 0.5320740997398585 -0.1282854570461064 -0.2461720682191134 -0.41982044995511 
-0.0393157782393049 -0.1600968495481658 -0.1493932127155845 0.00641742551036429 -0.1200448455010108 0.1090651372646163 -0.05130503504671983 -0.0131616489800332 0.2595714685827977 -0.1716657965458246 -0.08631616513223532 -0.03455935248585238 
-0.09622451209165957 0.2333348617429734 0.2297058831494981 -0.4811170507056664 -0.3550892372948732 0.1163111494190399 -0.2663215065488383 -0.1230017379785283 -0.5883286196499269 -0.4557580828501315 -0.1694458328310731 0.2711263676420897 
0.05074079157662191 -0.05723166229998224 -0.5163145196104804 -0.4245130379700582 -0.02282583804293733 -0.1494884816484327 -0.3989058780029791 -0.1337546208221823 0.1715533961963399 -0.08734494744975395 0.06711500239630115 0.2908198972581549 
-0.2634114504790235 -0.0489217378338376 -0.2305291929277411 -0.04718821488757813 -0.2161457196368906 0.2113495433602137 -0.227426829452443 0.2983640925780411 -0.1735679251601974 -0.04259837810602662 -0.1910791944383538 -0.05080155421814537 
0.04423749220489086 0.2384343241875544 -0.0999121280348416 -0.02404811496341087 -0.1250051355371616 -0.01629182737979351 -0.01944733584033882 0.03345490278352863 -0.15976363069776 -0.2259008555266297 0.007750075557163411 0.004313388958354238 
-0.03673557812888815 -0.04596099636934983 -0.02733861263119841 0.1127758433237538 -0.06368444782242308 -0.04067774674817867 -0.09184967257831116 -0.0006531419395697237 0.01164404079996094 -0.1675728066949139 -0.05044707072157038 -0.03218736044143156 
0.0007831491173440349 -0.01252373381646178 -5.358519556517373e-05 -0.01648513143422013 -0.0256295579942588 -0.03219306034432175 -0.01254364945023102 0.03648057845710807 0.0009514691824935521 -0.01294217008949378 -0.02119701820960725 0.001616960812068652 
-0.006068128535865016 -0.02735365241312987 0.05056293406418039 -0.0001123828073160721 -0.02130024513177295 0.05007863644509848 -0.01235390424872078 0.01955710623042156 -0.06685116436308983 -0.03260199673598477 -0.02114343264497549 -0.005957537838504345 
-0.3386322011537529 -0.1979065229952771 -0.3045345883525188 -0.08982054320537394 -0.306801457746895 0.5314703745008401 -0.4029240259496386 0.2375464184468754 -0.2159027047829172 -0.138110661593503 -0.2877473151746524 -0.2058300214851036 
-0.09901071648556375 -0.1528373024111542 -0.07120193941735127 0.1179794311323505 -0.04371158828069953 -0.0880594682016151 -0.07737904026165542 -0.01717432231189204 -0.02777854877361341 0.03848821819876351 -0.1748926645306448 -0.1380774827201839 
0.0289295846650455 -0.03538039221950329 -0.02655154030542807 -0.09316822649262115 0.01161155455983464 -0.07522935656995983 -0.04831396619183522 -0.09067229675475905 0.1684535298699664 -0.01251728709841432 -0.003722895878269944 -0.002910637510057677 
-0.04089164737903473 0.04573437071421111 -0.05881705671891884 -0.008405355251205263 -0.05496158055659771 0.05372420487541955 -0.02775668024054929 -0.02244607163570315 -0.0267072946954508 -0.02029129788829815 0.02098948593687541 -0.03089995433215788 
0.002447669580042403 -0.1194736725264061 0.08388771339218951 -0.263499941506683 -0.07527659038448369 0.04753016350804619 0.206767113398807 0.007071427235861395 -0.02656012708821904 0.01916236351336318 0.05428959364034829 -0.01622458078192892 
-0.08354959405907232 0.07032198848271752 -0.02673756027691139 -0.05854447432554293 -6.311960965627413e-05 -0.1395177067171684 -0.02533401710304543 -0.1139124960227971 -0.08938692678179637 -0.04228684453214931 -0.04838734785116891 -0.002975730266543604 
-0.2410804765613325 -0.1241317337926064 -0.7811778283075547 -0.4556779044226263 -0.5022335847365367 -0.06387598738783377 -0.531518117060708 -0.2821422958691486 -0.2504200287099945 0.1139807626660034 0.2539947508503383 -0.3193478419697319 
0.3145511500318379 -0.04299217089820339 -0.2106993258084253 -0.5036456087939188 -0.205864348423763 -0.1297252568037764 -0.1280377540234609 0.05191110411354864 0.006970618178883304 -0.2102283591515238 -0.06464256700812368 -0.2426196538977938 
-0.3232581408449943 -0.4396730802014518 -0.3609618849882366 -0.2843937697447863 -0.1151013601596849 -0.4062954351978184 -0.3108052335518938 -0.2820548222526614 0.07246750016586244 0.422726108002468 -0.3441671429405001 -0.7045206255457425 
-0.101978366121686 -0.3177634585626581 -0.2420960981293461 0.04059125693083016 -0.06032372604680736 0.4653040589469191 -0.2223400378839232 -0.5276625875076528 0.3253401409929639 -0.3232905935922084 0.02595342694721741 -0.1423308602729931 
0.0312475238177045 0.3944452103727497 -0.2876828789558247 -0.2003653602707334 -0.06924633244681683 -0.09825274703466597 -0.001208711548834934 -0.2085163389281666 0.8017276927222956 -0.7963925940275 0.0607878850343121 0.3604290273733326 
-0.1620217345130215 -0.2504838738045509 0.4182807262983992 -0.05599633669550672 -0.06965901239550314 -0.02126804190770651 -0.1002842770802348 -0.1558345918105496 -0.1169549845527704 -0.1689329151181198 -0.1827449088975362 -0.2117733048755779 
-0.09037132038426028 -0.2486964278091616 -0.2578085067641191 -0.5113169052771539 -0.2195267066208448 -0.2576168779785693 -0.4565124036383788 1.226709548622792 -0.07289300160371692 -0.4087161106297056 -0.2228368503000225 -0.2530754822736758 
-0.003310141957775002 -0.2397156674123543 -0.4738923170014641 0.9104867754991883 -0.1915211470619957 0.3294171747520833 -0.1646683299786003 -0.04128338656549468 0.6010696516247361 -0.7875226233056959 0.2447343170786013 -0.006834371983935775 
-0.02398155621574454 -0.07143377967947638 -0.2222188610487016 -0.1349802280766817 -0.06117133250518548 -0.01528168809798 -0.181141624060878 -0.008037845534372656 0.1263442410789336 -0.2965063788379722 0.01697531561546541 0.1266194521089338 
-0.05453101476181755 -0.07597172945735389 -0.3758086133844172 0.7133196714230037 -0.1141431122209956 0.1238069514112583 -0.1380658442515845 -0.04093448222951306 -0.1355101403865545 -0.08509118369239277 -0.1668462116156051 -0.0896562211758825 
-0.4860101930415056 -0.06597577063882917 -0.4346866584527621 -0.1693199460035812 -0.3506179562445835 -0.5303017568966171 0.5790116793916974 -0.3298017024438635 -0.858870995403651 0.09397327798882305 -0.2565398630307522 0.157916117814304 
0.3545456109165909 -0.06958201804594812 -0.1796243112789992 0.06152345120329564 -0.05878054430791547 -0.1573829935257571 -0.08261253720606637 0.01786671086938599 -0.1065974557515974 -0.07239294172370719 0.03282543024106755 0.2425096183497021 
-0.6442500764269969 -0.4340798021020109 -1.152792824607955 0.3433688762567997 -0.2176451437694867 -0.246644840437562 -1.446119643568476 -0.079328640576861 -0.0975808863436658 0.242792291889155 -0.2316561742202802 0.276594232223603 
-0.4576771098929815 -0.2013589770625229 -0.1080278353304267 -0.3535963223566099 -0.1889120124432271 -0.3249202405192251 -0.1836865233034033 -0.07995999849968757 -0.06345401743552051 0.359436198798423 -0.1762157102098715 -0.04771716851300015 
0.07974761649852734 -0.01220354214401842 -0.1567143205587297 0.1005567141298576 0.01218448970007605 0.5641836450481765 -0.09314864945938386 -0.1165773026987956 -0.1169510953523755 -0.0886719932424239 0.01285561836460556 -0.08093324174547406 
-0.9273798702598088 -0.6218042170970441 -0.204619747830286 -1.071004806923804 -0.08510285897999542 -0.2545363016157189 0.08578839103071165 -0.5427420916442883 -1.137189460047502 0.6762436994104685 0.5828112678561347 -0.4167939533666472 
-0.4592857582906161 -0.4725968451113077 -0.6106020647599739 1.038494153207123 -0.498864179498914 -0.5734065936766786 -0.4792326309624738 -0.3251556494965213 -0.4665871554963412 -0.5317693480337679 -0.6075738560654947 -0.5557747346568168 
-0.2975433419107583 -0.7874989314385431 5.585343900795587 -1.401588898909994 -1.108054331447875 -1.419389218009895 -0.7126293771148127 -1.016072500572156 -1.26861294367492 -1.588471059622913 -0.9484842542736579 -1.235016907308185 
-0.003460292344019312 0.01862716599986748 -0.01576593459504462 0.01657172141739395 0.01655321336261064 -0.01735984759084216 -0.01191101083677924 0.009292618882871908 0.01192604398234972 -0.05330777414276913 -0.02447401976787491 0.009306992055595265 
-0.01059058819334487 0.006305685392027494 -0.05713328119529925 -0.7236970550470053 -0.3413591080755313 0.7468644511811702 -0.2292909027170876 -0.430946556298935 0.02640679863648588 0.04895983846225661 -0.1332816315187933 -0.3632067385652569 
0.05908301884876632 -0.01478826632872521 0.002706335185502617 0.04053910064862618 -0.007995318706489816 -0.009256069295121924 0.0007060507297530747 0.006477230636234076 -0.02319708769940635 -0.0507066777316416 -0.02077385377677553 0.0002089668686032616 
-0.1362952062380962 -0.2139376872881499 0.2212135085880065 -0.1415801923286068 0.1973037803806135 -0.1215698741871355 -0.08351723907235167 -0.1367354435869912 0.3218794683536468 -0.3100198140945432 -0.1626261443052855 -0.2579730111280389 
-0.2239041436058141 0.2000020413833502 -1.27686793489411 0.3743746026588926 -0.7029628639073994 -0.4208989399296849 -0.4365479771425622 -0.08055060527796466 1.081498104198028 -0.6423864729825107 -0.4372825923788005 -0.2176451714231223 
-0.2780904529048122 -0.08687927945801091 -0.3831702865651932 0.09352568971177286 -0.1165636964995962 0.01427009501705389 0.04298684214819577 -0.01124585041774785 -0.1663710215749806 -0.1793686279335832 -0.1067401908364764 -0.1429938459284206 
-0.02066291367975459 -0.1426688297166671 -0.1103024769252695 -0.05156931887950373 -0.2292873818244458 -0.1638990069808725 -0.1132701672528054 -0.02669811210002994 0.6620166916795848 -0.3308378151904172 -0.134715535189264 0.02469301347176685 
-0.982145501179649 -0.258532561262048 -0.2512458809274613 -0.7781932682040941 -0.5211592795426834 -1.056135664676479 0.4562197050295255 0.7533042185575923 -0.5103648165566494 0.4585630562964022 0.109494557600521 -0.2246524681716565 
-0.2803762382036521 -0.130218728664894 -0.1341072406428782 -0.3870026100514544 -0.2414431892589515 -0.1480122949853035 -0.2953234542631948 -0.0959109486428302 -0.1341511097722006 -0.2609113410462606 0.8286590465321625 -0.2932003008015096 
-0.1914513878177351 -0.2131885371207859 -0.09674801904984059 0.1858145928478202 -0.2651031995519482 -0.3249964017710619 -0.1740596181262529 0.3693325522678733 -0.3024086844400955 0.0004863604064978864 -0.2236127126314724 -0.1791901599141315 
-0.1862163580055312 -0.01400944078787996 -0.07020841976989615 -0.2261399454177378 -0.0302137413376644 -0.1045988646948647 0.02281066293084464 -0.1698112854376964 0.3250293308156537 -0.1668608353732085 -0.2212458553150252 -0.06370928031360937 
-0.6618505845091672 -0.22232799555177 -0.03466434513991133 -0.649798652539071 0.02183689451173795 -0.07064052781657261 -0.2132975585713777 0.09595731662372266 -0.3270098348434637 0.2815674328385006 0.1388832216032858 -0.1147270182615636 
-0.1754077554242559 0.01550133357845387 -0.8840789104869085 -0.4580152865437692 -0.5868825689760038 -0.6077135070390662 -0.2845837658629857 -0.03802548561134424 -0.4024897557713188 -0.3083723501742268 0.040483247109331 -0.1931888403043758 
-0.07883873739869754 0.05700838981534572 -0.004928206121303533 -0.06001247447329596 -0.03323760081998616 0.01010873482790482 -0.05757558156096951 0.04152056105442509 -0.1700074004419781 -0.1612641084492299 -0.01805125476140819 0.04144807183521082 
-0.1000173231690703 -0.2600468256930837 -0.354115240760869 0.06181860423648611 -0.2701613269461784 -0.3460889194039311 -0.2205516678069034 0.7805072464174785 -0.05237389738248292 -0.2298980124783918 -0.1279925972488135 -0.5412527199973879 
-0.08236796771666831 -0.164211530716586 0.1238949513782273 -0.01076685699526991 0.02880232764503938 -0.221245371920892 0.05706685626372617 0.2389114964053314 -0.4097200752132487 -0.03565131927913791 -0.2407880323834444 -0.2826443124181027 
-0.006171601888165926 -0.08887288321760353 -0.013082118058078 -0.1055076710798942 -0.05391989348114379 -0.04188303260722699 -0.05887277453918528 -0.02638874723031098 0.3483252538397683 -0.1302412001416935 -0.03222454575977903 -0.105269814691814 
0.0609266849891153 0.2039395139807806 -1.110712950614807 0.6142268082651255 -0.3878439270692932 -0.2778403560234034 -0.5648058957767529 -0.1113046925811092 -0.04890972025469922 -0.5726262963478288 -0.3870087190450644 -0.1758498670384878 
-0.09694455142924002 -0.1762952617671674 0.1702954611097648 -0.03063225334531614 -0.1334018792079574 -0.1489921859929268 0.06349038777437879 -0.1079332154239763 -0.2486170820845001 0.04440790172924545 0.1575384753189396 -0.050182468344685 
-0.01676787911757429 -0.01823627585938847 0.2388178271253951 -0.2614865498729353 -0.1785454014984442 0.310416279389583 0.00380646585162164 -0.1224723162202035 -0.04947703096651466 0.05960077727535299 0.07229975618367862 -0.04683874763637651 
-0.09529172878492477 -0.08579123449909917 -0.007363795045393116 0.4025391501672855 -0.1048116047149907 -0.441872116487491 -0.2670542679574894 -0.1959967766387372 -0.500130123743742 0.007602321397356046 -0.1028253839501521 0.2203416373319712 
0.2089701600189882 -0.0424754105567547 0.3744959698414858 0.1570289870867852 0.02468810020657279 -0.3518983559392334 -0.2138017734656933 -0.2238410541063576 -0.2903953162730107 -0.08891168173691824 0.09641687409582272 0.3194005897736305 
-0.0795666865183928 -0.2601020374213346 1.706470380786049 -0.343302627514334 -0.4240172878025709 -0.2937497351546453 -0.6130476487114613 -0.8005549173512091 -0.2162788913794735 -0.07215523067256153 -0.6793982733361186 -0.5891291131587176 
